package com.hazelcast.jet.impl.util;

import java.awt.*;
import java.awt.geom.AffineTransform;
import java.awt.geom.GeneralPath;
import java.awt.geom.Rectangle2D;
import java.awt.image.BufferedImage;
import java.util.HashMap;
import java.util.Map;

import static java.awt.Color.BLACK;
import static java.awt.Color.WHITE;

/**
 * This class has been automatically generated using
 * <a href="http://ebourg.github.io/flamingo-svg-transcoder/">Flamingo SVG transcoder</a>.
 */
public class VisualizerImage implements javax.swing.Icon {

    /** The width of this icon. */
    private int width;

    /** The height of this icon. */
    private int height;

    /** The rendered image. */
    private BufferedImage image;

    private Map<String, LineProperties> properties = new HashMap<>();
    private Stroke oldStroke;
    private Color oldColor;

    private static final float[] STROKE_WIDTHS = { 0.26458332f, 2*0.26458332f, 4*0.26458332f };

    public static final class LineProperties {
        private final int thickness;
        private final Color color;

        public LineProperties(int thickness, Color color) {
            this.thickness = thickness;
            this.color = color;
        }
    }

    /**
     * Creates a new transcoded SVG image.
     */
    public VisualizerImage() {
        this(680, 747);
    }

    /**
     * Creates a new transcoded SVG image.
     */
public VisualizerImage(int width, int height) {
        this.width = width;
        this.height = height;
    }

    private void setPropertiesToGraphics(String key, Graphics2D g) {
        oldStroke = g.getStroke();
        oldColor = g.getColor();

        if ( ! properties.containsKey(key)) {
            System.err.println("properties for " + key + " not found");
            properties.put(key, null);
        }
        LineProperties props = properties.get(key);
        if (props == null)
            return;

        g.setStroke(new BasicStroke(STROKE_WIDTHS[props.thickness]));
        g.setColor(props.color);
    }

    private void resetPropertiesFromGraphics(Graphics2D g) {
        g.setStroke(oldStroke);
        g.setColor(oldColor);
    }

    public void setPropertiesFor(String key, int thickness, Color color) {
        properties.put(key, new LineProperties(thickness, color));
    }

    @Override
    public int getIconHeight() {
        return height;
    }

    @Override
    public int getIconWidth() {
        return width;
    }

    @Override
    public void paintIcon(Component c, Graphics g, int x, int y) {
        if (image == null) {
            image = new BufferedImage(getIconWidth(), getIconHeight(), BufferedImage.TYPE_INT_ARGB);
            double coef = Math.min((double) width / (double) 680, (double) height / (double) 747);
            
            Graphics2D g2d = image.createGraphics();
            g2d.setRenderingHint(RenderingHints.KEY_ANTIALIASING, RenderingHints.VALUE_ANTIALIAS_ON);
            g2d.scale(coef, coef);
            paint(g2d);
            g2d.dispose();
        }
        
        g.drawImage(image, x, y, null);
    }

    /**
     * Paints the transcoded SVG image on the specified graphics context.
     * 
     * @param g Graphics context.
     */
    private void paint(Graphics2D g) {
        Shape shape = null;
        
        float origAlpha = 1.0f;
        
        java.util.LinkedList<AffineTransform> transformations = new java.util.LinkedList<AffineTransform>();
        

        // 
        transformations.push(g.getTransform());
        g.transform(new AffineTransform(3.7795277f, 0, 0, 3.7795277f, 0, 5.7671015E-5f));

        // _0

        // _0_0
        transformations.push(g.getTransform());
        g.transform(new AffineTransform(1, 0, 0, 1, 32.473248f, -0.4009043f));

        // _0_0_0

        // _0_0_0_0
        shape = new Rectangle2D.Double(12.310181617736816, 21.330650329589844, 36.08869934082031, 9.648689270019531);
        g.setPaint(BLACK);
        g.setStroke(new BasicStroke(0.2444532f, 0, 0, 4));
        g.draw(shape);

        // _0_0_0_1
        //  doc-source 
        shape = new GeneralPath();

        g.fill(shape);
        shape = new GeneralPath();
        ((GeneralPath) shape).moveTo(20.679392, 27.391861);
        ((GeneralPath) shape).lineTo(20.679392, 27.114876);
        ((GeneralPath) shape).quadTo(20.471308, 27.441471, 20.066166, 27.441471);
        ((GeneralPath) shape).quadTo(19.80296, 27.441471, 19.583162, 27.296776);
        ((GeneralPath) shape).quadTo(19.363365, 27.152082, 19.242098, 26.892323);
        ((GeneralPath) shape).quadTo(19.12083, 26.632563, 19.12083, 26.29632);
        ((GeneralPath) shape).quadTo(19.12083, 25.96697, 19.230385, 25.69963);
        ((GeneralPath) shape).quadTo(19.33994, 25.432291, 19.559048, 25.289663);
        ((GeneralPath) shape).quadTo(19.778154, 25.147038, 20.04963, 25.147038);
        ((GeneralPath) shape).quadTo(20.248066, 25.147038, 20.403095, 25.230408);
        ((GeneralPath) shape).quadTo(20.558125, 25.31378, 20.654587, 25.448828);
        ((GeneralPath) shape).lineTo(20.654587, 24.361555);
        ((GeneralPath) shape).lineTo(21.02528, 24.361555);
        ((GeneralPath) shape).lineTo(21.02528, 27.391861);
        ((GeneralPath) shape).lineTo(20.679392, 27.391861);
        ((GeneralPath) shape).closePath();
        ((GeneralPath) shape).moveTo(19.503925, 26.29632);
        ((GeneralPath) shape).quadTo(19.503925, 26.718, 19.681692, 26.926773);
        ((GeneralPath) shape).quadTo(19.859459, 27.135546, 20.100616, 27.135546);
        ((GeneralPath) shape).quadTo(20.344528, 27.135546, 20.515406, 26.93573);
        ((GeneralPath) shape).quadTo(20.686283, 26.735914, 20.686283, 26.326637);
        ((GeneralPath) shape).quadTo(20.686283, 25.876019, 20.51265, 25.665178);
        ((GeneralPath) shape).quadTo(20.339016, 25.45434, 20.08408, 25.45434);
        ((GeneralPath) shape).quadTo(19.836033, 25.45434, 19.66998, 25.656912);
        ((GeneralPath) shape).quadTo(19.503925, 25.859482, 19.503925, 26.29632);
        ((GeneralPath) shape).closePath();
        ((GeneralPath) shape).moveTo(21.471075, 26.293564);
        ((GeneralPath) shape).quadTo(21.471075, 25.684471, 21.810072, 25.39095);
        ((GeneralPath) shape).quadTo(22.093948, 25.147038, 22.50047, 25.147038);
        ((GeneralPath) shape).quadTo(22.953844, 25.147038, 23.241165, 25.443316);
        ((GeneralPath) shape).quadTo(23.528486, 25.739594, 23.528486, 26.263248);
        ((GeneralPath) shape).quadTo(23.528486, 26.686306, 23.401016, 26.92953);
        ((GeneralPath) shape).quadTo(23.273548, 27.172752, 23.031013, 27.307112);
        ((GeneralPath) shape).quadTo(22.788479, 27.441471, 22.50047, 27.441471);
        ((GeneralPath) shape).quadTo(22.040205, 27.441471, 21.75564, 27.145882);
        ((GeneralPath) shape).quadTo(21.471075, 26.850292, 21.471075, 26.293564);
        ((GeneralPath) shape).closePath();
        ((GeneralPath) shape).moveTo(21.85417, 26.293564);
        ((GeneralPath) shape).quadTo(21.85417, 26.715244, 22.038137, 26.925396);
        ((GeneralPath) shape).quadTo(22.222105, 27.135546, 22.50047, 27.135546);
        ((GeneralPath) shape).quadTo(22.777454, 27.135546, 22.961424, 26.924706);
        ((GeneralPath) shape).quadTo(23.145391, 26.713865, 23.145391, 26.281162);
        ((GeneralPath) shape).quadTo(23.145391, 25.874641, 22.960733, 25.66449);
        ((GeneralPath) shape).quadTo(22.776077, 25.45434, 22.50047, 25.45434);
        ((GeneralPath) shape).quadTo(22.222105, 25.45434, 22.038137, 25.663113);
        ((GeneralPath) shape).quadTo(21.85417, 25.871885, 21.85417, 26.293564);
        ((GeneralPath) shape).closePath();
        ((GeneralPath) shape).moveTo(25.396416, 26.587088);
        ((GeneralPath) shape).lineTo(25.762974, 26.635319);
        ((GeneralPath) shape).quadTo(25.702341, 27.012901, 25.455671, 27.227186);
        ((GeneralPath) shape).quadTo(25.209003, 27.441471, 24.849335, 27.441471);
        ((GeneralPath) shape).quadTo(24.398716, 27.441471, 24.124487, 27.14657);
        ((GeneralPath) shape).quadTo(23.850258, 26.85167, 23.850258, 26.301832);
        ((GeneralPath) shape).quadTo(23.850258, 25.946299, 23.968079, 25.67965);
        ((GeneralPath) shape).quadTo(24.085901, 25.412998, 24.327059, 25.280018);
        ((GeneralPath) shape).quadTo(24.568214, 25.147038, 24.850714, 25.147038);
        ((GeneralPath) shape).quadTo(25.209003, 25.147038, 25.436378, 25.32756);
        ((GeneralPath) shape).quadTo(25.663755, 25.508083, 25.727144, 25.841568);
        ((GeneralPath) shape).lineTo(25.366098, 25.89669);
        ((GeneralPath) shape).quadTo(25.313734, 25.676203, 25.18282, 25.564583);
        ((GeneralPath) shape).quadTo(25.051907, 25.452961, 24.865871, 25.452961);
        ((GeneralPath) shape).quadTo(24.584751, 25.452961, 24.409052, 25.654156);
        ((GeneralPath) shape).quadTo(24.233353, 25.855349, 24.233353, 26.292187);
        ((GeneralPath) shape).quadTo(24.233353, 26.734537, 24.402851, 26.935041);
        ((GeneralPath) shape).quadTo(24.57235, 27.135546, 24.845201, 27.135546);
        ((GeneralPath) shape).quadTo(25.064308, 27.135546, 25.21107, 27.001186);
        ((GeneralPath) shape).quadTo(25.35783, 26.866829, 25.396416, 26.587088);
        ((GeneralPath) shape).closePath();
        ((GeneralPath) shape).moveTo(25.936607, 26.482355);
        ((GeneralPath) shape).lineTo(25.936607, 26.107529);
        ((GeneralPath) shape).lineTo(27.079, 26.107529);
        ((GeneralPath) shape).lineTo(27.079, 26.482355);
        ((GeneralPath) shape).lineTo(25.936607, 26.482355);
        ((GeneralPath) shape).closePath();
        ((GeneralPath) shape).moveTo(27.342205, 26.735914);
        ((GeneralPath) shape).lineTo(27.710142, 26.678038);
        ((GeneralPath) shape).quadTo(27.74046, 26.8999, 27.882397, 27.017723);
        ((GeneralPath) shape).quadTo(28.024334, 27.135546, 28.277893, 27.135546);
        ((GeneralPath) shape).quadTo(28.534208, 27.135546, 28.658232, 27.030815);
        ((GeneralPath) shape).quadTo(28.782255, 26.926085, 28.782255, 26.785524);
        ((GeneralPath) shape).quadTo(28.782255, 26.660122, 28.673391, 26.587088);
        ((GeneralPath) shape).quadTo(28.59622, 26.537477, 28.293053, 26.461685);
        ((GeneralPath) shape).quadTo(27.883776, 26.358332, 27.7253, 26.28254);
        ((GeneralPath) shape).quadTo(27.566826, 26.206749, 27.485521, 26.073767);
        ((GeneralPath) shape).quadTo(27.404217, 25.940786, 27.404217, 25.779556);
        ((GeneralPath) shape).quadTo(27.404217, 25.632107, 27.471052, 25.507395);
        ((GeneralPath) shape).quadTo(27.537888, 25.38268, 27.653643, 25.3);
        ((GeneralPath) shape).quadTo(27.74046, 25.235231, 27.890665, 25.191133);
        ((GeneralPath) shape).quadTo(28.04087, 25.147038, 28.211748, 25.147038);
        ((GeneralPath) shape).quadTo(28.47082, 25.147038, 28.665812, 25.22145);
        ((GeneralPath) shape).quadTo(28.860804, 25.295864, 28.953821, 25.422644);
        ((GeneralPath) shape).quadTo(29.046839, 25.549423, 29.082668, 25.76302);
        ((GeneralPath) shape).lineTo(28.718866, 25.81263);
        ((GeneralPath) shape).quadTo(28.694061, 25.643131, 28.574862, 25.548046);
        ((GeneralPath) shape).quadTo(28.45566, 25.452961, 28.23931, 25.452961);
        ((GeneralPath) shape).quadTo(27.982994, 25.452961, 27.87344, 25.53771);
        ((GeneralPath) shape).quadTo(27.763885, 25.62246, 27.763885, 25.735458);
        ((GeneralPath) shape).quadTo(27.763885, 25.808495, 27.80936, 25.866373);
        ((GeneralPath) shape).quadTo(27.854836, 25.925629, 27.9513, 25.965591);
        ((GeneralPath) shape).quadTo(28.0078, 25.986261, 28.28065, 26.060677);
        ((GeneralPath) shape).quadTo(28.674768, 26.165407, 28.831177, 26.232931);
        ((GeneralPath) shape).quadTo(28.987583, 26.300455, 29.076468, 26.428612);
        ((GeneralPath) shape).quadTo(29.16535, 26.55677, 29.16535, 26.746939);
        ((GeneralPath) shape).quadTo(29.16535, 26.932974, 29.056486, 27.09696);
        ((GeneralPath) shape).quadTo(28.94762, 27.260948, 28.742981, 27.35121);
        ((GeneralPath) shape).quadTo(28.538343, 27.441471, 28.28065, 27.441471);
        ((GeneralPath) shape).quadTo(27.85208, 27.441471, 27.628149, 27.263704);
        ((GeneralPath) shape).quadTo(27.404217, 27.085936, 27.342205, 26.735914);
        ((GeneralPath) shape).closePath();
        ((GeneralPath) shape).moveTo(29.46852, 26.293564);
        ((GeneralPath) shape).quadTo(29.46852, 25.684471, 29.807516, 25.39095);
        ((GeneralPath) shape).quadTo(30.091393, 25.147038, 30.497913, 25.147038);
        ((GeneralPath) shape).quadTo(30.951288, 25.147038, 31.23861, 25.443316);
        ((GeneralPath) shape).quadTo(31.52593, 25.739594, 31.52593, 26.263248);
        ((GeneralPath) shape).quadTo(31.52593, 26.686306, 31.39846, 26.92953);
        ((GeneralPath) shape).quadTo(31.270992, 27.172752, 31.028458, 27.307112);
        ((GeneralPath) shape).quadTo(30.785923, 27.441471, 30.497913, 27.441471);
        ((GeneralPath) shape).quadTo(30.03765, 27.441471, 29.753084, 27.145882);
        ((GeneralPath) shape).quadTo(29.46852, 26.850292, 29.46852, 26.293564);
        ((GeneralPath) shape).closePath();
        ((GeneralPath) shape).moveTo(29.851614, 26.293564);
        ((GeneralPath) shape).quadTo(29.851614, 26.715244, 30.035582, 26.925396);
        ((GeneralPath) shape).quadTo(30.21955, 27.135546, 30.497913, 27.135546);
        ((GeneralPath) shape).quadTo(30.774899, 27.135546, 30.958868, 26.924706);
        ((GeneralPath) shape).quadTo(31.142836, 26.713865, 31.142836, 26.281162);
        ((GeneralPath) shape).quadTo(31.142836, 25.874641, 30.958178, 25.66449);
        ((GeneralPath) shape).quadTo(30.773521, 25.45434, 30.497913, 25.45434);
        ((GeneralPath) shape).quadTo(30.21955, 25.45434, 30.035582, 25.663113);
        ((GeneralPath) shape).quadTo(29.851614, 25.871885, 29.851614, 26.293564);
        ((GeneralPath) shape).closePath();
        ((GeneralPath) shape).moveTo(33.40075, 27.391861);
        ((GeneralPath) shape).lineTo(33.40075, 27.0694);
        ((GeneralPath) shape).quadTo(33.144436, 27.441471, 32.703465, 27.441471);
        ((GeneralPath) shape).quadTo(32.50916, 27.441471, 32.341038, 27.367056);
        ((GeneralPath) shape).quadTo(32.17292, 27.292643, 32.090923, 27.179644);
        ((GeneralPath) shape).quadTo(32.00893, 27.066645, 31.975859, 26.904036);
        ((GeneralPath) shape).quadTo(31.95381, 26.793793, 31.95381, 26.55677);
        ((GeneralPath) shape).lineTo(31.95381, 25.196646);
        ((GeneralPath) shape).lineTo(32.325882, 25.196646);
        ((GeneralPath) shape).lineTo(32.325882, 26.413454);
        ((GeneralPath) shape).quadTo(32.325882, 26.705599, 32.34793, 26.806194);
        ((GeneralPath) shape).quadTo(32.38376, 26.953646, 32.497448, 27.037016);
        ((GeneralPath) shape).quadTo(32.611134, 27.120388, 32.777878, 27.120388);
        ((GeneralPath) shape).quadTo(32.946, 27.120388, 33.09276, 27.034948);
        ((GeneralPath) shape).quadTo(33.23952, 26.94951, 33.30015, 26.801373);
        ((GeneralPath) shape).quadTo(33.360786, 26.653233, 33.360786, 26.372112);
        ((GeneralPath) shape).lineTo(33.360786, 25.196646);
        ((GeneralPath) shape).lineTo(33.732857, 25.196646);
        ((GeneralPath) shape).lineTo(33.732857, 27.391861);
        ((GeneralPath) shape).lineTo(33.40075, 27.391861);
        ((GeneralPath) shape).closePath();
        ((GeneralPath) shape).moveTo(34.31232, 27.391861);
        ((GeneralPath) shape).lineTo(34.31232, 25.196646);
        ((GeneralPath) shape).lineTo(34.647182, 25.196646);
        ((GeneralPath) shape).lineTo(34.647182, 25.528753);
        ((GeneralPath) shape).quadTo(34.77534, 25.295864, 34.88352, 25.22145);
        ((GeneralPath) shape).quadTo(34.99169, 25.147038, 35.12261, 25.147038);
        ((GeneralPath) shape).quadTo(35.31002, 25.147038, 35.504322, 25.266926);
        ((GeneralPath) shape).lineTo(35.376167, 25.611435);
        ((GeneralPath) shape).quadTo(35.23974, 25.53151, 35.103313, 25.53151);
        ((GeneralPath) shape).quadTo(34.982048, 25.53151, 34.884895, 25.604546);
        ((GeneralPath) shape).quadTo(34.787743, 25.677582, 34.746403, 25.808495);
        ((GeneralPath) shape).quadTo(34.68439, 26.006933, 34.68439, 26.242577);
        ((GeneralPath) shape).lineTo(34.68439, 27.391861);
        ((GeneralPath) shape).lineTo(34.31232, 27.391861);
        ((GeneralPath) shape).closePath();
        ((GeneralPath) shape).moveTo(37.157974, 26.587088);
        ((GeneralPath) shape).lineTo(37.524532, 26.635319);
        ((GeneralPath) shape).quadTo(37.463898, 27.012901, 37.217228, 27.227186);
        ((GeneralPath) shape).quadTo(36.97056, 27.441471, 36.610893, 27.441471);
        ((GeneralPath) shape).quadTo(36.160275, 27.441471, 35.886044, 27.14657);
        ((GeneralPath) shape).quadTo(35.611813, 26.85167, 35.611813, 26.301832);
        ((GeneralPath) shape).quadTo(35.611813, 25.946299, 35.729637, 25.67965);
        ((GeneralPath) shape).quadTo(35.847458, 25.412998, 36.088615, 25.280018);
        ((GeneralPath) shape).quadTo(36.329773, 25.147038, 36.61227, 25.147038);
        ((GeneralPath) shape).quadTo(36.97056, 25.147038, 37.197937, 25.32756);
        ((GeneralPath) shape).quadTo(37.425312, 25.508083, 37.4887, 25.841568);
        ((GeneralPath) shape).lineTo(37.127655, 25.89669);
        ((GeneralPath) shape).quadTo(37.07529, 25.676203, 36.944378, 25.564583);
        ((GeneralPath) shape).quadTo(36.81346, 25.452961, 36.627426, 25.452961);
        ((GeneralPath) shape).quadTo(36.34631, 25.452961, 36.17061, 25.654156);
        ((GeneralPath) shape).quadTo(35.994907, 25.855349, 35.994907, 26.292187);
        ((GeneralPath) shape).quadTo(35.994907, 26.734537, 36.164406, 26.935041);
        ((GeneralPath) shape).quadTo(36.333904, 27.135546, 36.60676, 27.135546);
        ((GeneralPath) shape).quadTo(36.825867, 27.135546, 36.972626, 27.001186);
        ((GeneralPath) shape).quadTo(37.11939, 26.866829, 37.157974, 26.587088);
        ((GeneralPath) shape).closePath();
        ((GeneralPath) shape).moveTo(39.344917, 26.684927);
        ((GeneralPath) shape).lineTo(39.72939, 26.731781);
        ((GeneralPath) shape).quadTo(39.63844, 27.0694, 39.39246, 27.255436);
        ((GeneralPath) shape).quadTo(39.14648, 27.441471, 38.764763, 27.441471);
        ((GeneralPath) shape).quadTo(38.28245, 27.441471, 38.00064, 27.144503);
        ((GeneralPath) shape).quadTo(37.718834, 26.847536, 37.718834, 26.312857);
        ((GeneralPath) shape).quadTo(37.718834, 25.758886, 38.004086, 25.452961);
        ((GeneralPath) shape).quadTo(38.28934, 25.147038, 38.74409, 25.147038);
        ((GeneralPath) shape).quadTo(39.183685, 25.147038, 39.462738, 25.44676);
        ((GeneralPath) shape).quadTo(39.74179, 25.746483, 39.74179, 26.28943);
        ((GeneralPath) shape).quadTo(39.74179, 26.322504, 39.740414, 26.388649);
        ((GeneralPath) shape).lineTo(38.103306, 26.388649);
        ((GeneralPath) shape).quadTo(38.123974, 26.751074, 38.307945, 26.94331);
        ((GeneralPath) shape).quadTo(38.491913, 27.135546, 38.76614, 27.135546);
        ((GeneralPath) shape).quadTo(38.97147, 27.135546, 39.11616, 27.028059);
        ((GeneralPath) shape).quadTo(39.260857, 26.920572, 39.344917, 26.684927);
        ((GeneralPath) shape).closePath();
        ((GeneralPath) shape).moveTo(38.123974, 26.082726);
        ((GeneralPath) shape).lineTo(39.349052, 26.082726);
        ((GeneralPath) shape).quadTo(39.324245, 25.805738, 39.208492, 25.667934);
        ((GeneralPath) shape).quadTo(39.030724, 25.452961, 38.748226, 25.452961);
        ((GeneralPath) shape).quadTo(38.491913, 25.452961, 38.316902, 25.624527);
        ((GeneralPath) shape).quadTo(38.14189, 25.796093, 38.123974, 26.082726);
        ((GeneralPath) shape).closePath();

        g.fill(shape);
        shape = new GeneralPath();

        g.fill(shape);

        g.setTransform(transformations.pop()); // _0_0_0
        transformations.push(g.getTransform());
        g.transform(new AffineTransform(1, 0, 0, 1, 38.620445f, -0.4009043f));

        // _0_0_1

        // _0_0_1_0
        shape = new Rectangle2D.Double(101.97747802734375, 21.71670150756836, 47.54567337036133, 9.613075256347656);
        g.setStroke(new BasicStroke(0.28006744f, 0, 0, 4));
        g.draw(shape);

        // _0_0_1_1
        //  stopword-source 
        shape = new GeneralPath();

        g.fill(shape);
        shape = new GeneralPath();
        ((GeneralPath) shape).moveTo(108.756546, 27.104158);
        ((GeneralPath) shape).lineTo(109.12448, 27.046282);
        ((GeneralPath) shape).quadTo(109.1548, 27.268145, 109.29674, 27.385967);
        ((GeneralPath) shape).quadTo(109.438675, 27.50379, 109.69224, 27.50379);
        ((GeneralPath) shape).quadTo(109.94855, 27.50379, 110.07257, 27.39906);
        ((GeneralPath) shape).quadTo(110.196594, 27.294329, 110.196594, 27.153769);
        ((GeneralPath) shape).quadTo(110.196594, 27.028366, 110.08773, 26.955332);
        ((GeneralPath) shape).quadTo(110.01056, 26.905722, 109.70739, 26.82993);
        ((GeneralPath) shape).quadTo(109.29812, 26.726576, 109.13964, 26.650784);
        ((GeneralPath) shape).quadTo(108.98117, 26.574993, 108.899864, 26.44201);
        ((GeneralPath) shape).quadTo(108.81856, 26.30903, 108.81856, 26.1478);
        ((GeneralPath) shape).quadTo(108.81856, 26.00035, 108.88539, 25.875639);
        ((GeneralPath) shape).quadTo(108.952225, 25.750925, 109.067986, 25.668243);
        ((GeneralPath) shape).quadTo(109.1548, 25.603476, 109.30501, 25.559378);
        ((GeneralPath) shape).quadTo(109.455215, 25.515282, 109.62609, 25.515282);
        ((GeneralPath) shape).quadTo(109.88516, 25.515282, 110.080154, 25.589695);
        ((GeneralPath) shape).quadTo(110.27515, 25.664108, 110.368164, 25.790888);
        ((GeneralPath) shape).quadTo(110.46118, 25.917667, 110.49701, 26.131264);
        ((GeneralPath) shape).lineTo(110.13321, 26.180874);
        ((GeneralPath) shape).quadTo(110.1084, 26.011375, 109.989204, 25.91629);
        ((GeneralPath) shape).quadTo(109.87, 25.821205, 109.65365, 25.821205);
        ((GeneralPath) shape).quadTo(109.39733, 25.821205, 109.28778, 25.905954);
        ((GeneralPath) shape).quadTo(109.17823, 25.990704, 109.17823, 26.103703);
        ((GeneralPath) shape).quadTo(109.17823, 26.176739, 109.2237, 26.234617);
        ((GeneralPath) shape).quadTo(109.26918, 26.293873, 109.36564, 26.333836);
        ((GeneralPath) shape).quadTo(109.42214, 26.354506, 109.69499, 26.42892);
        ((GeneralPath) shape).quadTo(110.08911, 26.533651, 110.245514, 26.601175);
        ((GeneralPath) shape).quadTo(110.401924, 26.6687, 110.49081, 26.796856);
        ((GeneralPath) shape).quadTo(110.57969, 26.925014, 110.57969, 27.115183);
        ((GeneralPath) shape).quadTo(110.57969, 27.301218, 110.470825, 27.465204);
        ((GeneralPath) shape).quadTo(110.36196, 27.629192, 110.157326, 27.719454);
        ((GeneralPath) shape).quadTo(109.95268, 27.809715, 109.69499, 27.809715);
        ((GeneralPath) shape).quadTo(109.26642, 27.809715, 109.04249, 27.631948);
        ((GeneralPath) shape).quadTo(108.81856, 27.45418, 108.756546, 27.104158);
        ((GeneralPath) shape).closePath();
        ((GeneralPath) shape).moveTo(111.83371, 27.42662);
        ((GeneralPath) shape).lineTo(111.88745, 27.755972);
        ((GeneralPath) shape).quadTo(111.730354, 27.789043, 111.60633, 27.789043);
        ((GeneralPath) shape).quadTo(111.40376, 27.789043, 111.29214, 27.724966);
        ((GeneralPath) shape).quadTo(111.18052, 27.660887, 111.13504, 27.556156);
        ((GeneralPath) shape).quadTo(111.08957, 27.451426, 111.08957, 27.116562);
        ((GeneralPath) shape).lineTo(111.08957, 25.854279);
        ((GeneralPath) shape).lineTo(110.81672, 25.854279);
        ((GeneralPath) shape).lineTo(110.81672, 25.56489);
        ((GeneralPath) shape).lineTo(111.08957, 25.56489);
        ((GeneralPath) shape).lineTo(111.08957, 25.020565);
        ((GeneralPath) shape).lineTo(111.46026, 24.797323);
        ((GeneralPath) shape).lineTo(111.46026, 25.56489);
        ((GeneralPath) shape).lineTo(111.83371, 25.56489);
        ((GeneralPath) shape).lineTo(111.83371, 25.854279);
        ((GeneralPath) shape).lineTo(111.46026, 25.854279);
        ((GeneralPath) shape).lineTo(111.46026, 27.137232);
        ((GeneralPath) shape).quadTo(111.46026, 27.297085, 111.47955, 27.34256);
        ((GeneralPath) shape).quadTo(111.49885, 27.388035, 111.54363, 27.414907);
        ((GeneralPath) shape).quadTo(111.58842, 27.441778, 111.6711, 27.441778);
        ((GeneralPath) shape).quadTo(111.73311, 27.441778, 111.83371, 27.42662);
        ((GeneralPath) shape).closePath();
        ((GeneralPath) shape).moveTo(112.05901, 26.661808);
        ((GeneralPath) shape).quadTo(112.05901, 26.052715, 112.39802, 25.759193);
        ((GeneralPath) shape).quadTo(112.68189, 25.515282, 113.08841, 25.515282);
        ((GeneralPath) shape).quadTo(113.54179, 25.515282, 113.82911, 25.81156);
        ((GeneralPath) shape).quadTo(114.116425, 26.107838, 114.116425, 26.631493);
        ((GeneralPath) shape).quadTo(114.116425, 27.05455, 113.98896, 27.297773);
        ((GeneralPath) shape).quadTo(113.86149, 27.540997, 113.61896, 27.675356);
        ((GeneralPath) shape).quadTo(113.37642, 27.809715, 113.08841, 27.809715);
        ((GeneralPath) shape).quadTo(112.62814, 27.809715, 112.34358, 27.514126);
        ((GeneralPath) shape).quadTo(112.05901, 27.218536, 112.05901, 26.661808);
        ((GeneralPath) shape).closePath();
        ((GeneralPath) shape).moveTo(112.44211, 26.661808);
        ((GeneralPath) shape).quadTo(112.44211, 27.083488, 112.62608, 27.29364);
        ((GeneralPath) shape).quadTo(112.81005, 27.50379, 113.08841, 27.50379);
        ((GeneralPath) shape).quadTo(113.365395, 27.50379, 113.54936, 27.29295);
        ((GeneralPath) shape).quadTo(113.73333, 27.08211, 113.73333, 26.649406);
        ((GeneralPath) shape).quadTo(113.73333, 26.242886, 113.548676, 26.032734);
        ((GeneralPath) shape).quadTo(113.36402, 25.822584, 113.08841, 25.822584);
        ((GeneralPath) shape).quadTo(112.81005, 25.822584, 112.62608, 26.031357);
        ((GeneralPath) shape).quadTo(112.44211, 26.24013, 112.44211, 26.661808);
        ((GeneralPath) shape).closePath();
        ((GeneralPath) shape).moveTo(114.552574, 28.602087);
        ((GeneralPath) shape).lineTo(114.552574, 25.56489);
        ((GeneralPath) shape).lineTo(114.89157, 25.56489);
        ((GeneralPath) shape).lineTo(114.89157, 25.850143);
        ((GeneralPath) shape).quadTo(115.01147, 25.682024, 115.16236, 25.598652);
        ((GeneralPath) shape).quadTo(115.313255, 25.515282, 115.52823, 25.515282);
        ((GeneralPath) shape).quadTo(115.80935, 25.515282, 116.02432, 25.659975);
        ((GeneralPath) shape).quadTo(116.239296, 25.804668, 116.34885, 26.067875);
        ((GeneralPath) shape).quadTo(116.458405, 26.33108, 116.458405, 26.645273);
        ((GeneralPath) shape).quadTo(116.458405, 26.982891, 116.337135, 27.252298);
        ((GeneralPath) shape).quadTo(116.215866, 27.521704, 115.98573, 27.66571);
        ((GeneralPath) shape).quadTo(115.7556, 27.809715, 115.50066, 27.809715);
        ((GeneralPath) shape).quadTo(115.31463, 27.809715, 115.16718, 27.731167);
        ((GeneralPath) shape).quadTo(115.01973, 27.652618, 114.924644, 27.532728);
        ((GeneralPath) shape).lineTo(114.924644, 28.602087);
        ((GeneralPath) shape).lineTo(114.552574, 28.602087);
        ((GeneralPath) shape).closePath();
        ((GeneralPath) shape).moveTo(114.88882, 26.674212);
        ((GeneralPath) shape).quadTo(114.88882, 27.098646, 115.06039, 27.301218);
        ((GeneralPath) shape).quadTo(115.23195, 27.50379, 115.47586, 27.50379);
        ((GeneralPath) shape).quadTo(115.72391, 27.50379, 115.900986, 27.29364);
        ((GeneralPath) shape).quadTo(116.078064, 27.083488, 116.078064, 26.643894);
        ((GeneralPath) shape).quadTo(116.078064, 26.223593, 115.90512, 26.01482);
        ((GeneralPath) shape).quadTo(115.73218, 25.806047, 115.4924, 25.806047);
        ((GeneralPath) shape).quadTo(115.25538, 25.806047, 115.0721, 26.0286);
        ((GeneralPath) shape).quadTo(114.88882, 26.251154, 114.88882, 26.674212);
        ((GeneralPath) shape).closePath();
        ((GeneralPath) shape).moveTo(117.312096, 27.760105);
        ((GeneralPath) shape).lineTo(116.63962, 25.56489);
        ((GeneralPath) shape).lineTo(117.024086, 25.56489);
        ((GeneralPath) shape).lineTo(117.37411, 26.831308);
        ((GeneralPath) shape).lineTo(117.50365, 27.302597);
        ((GeneralPath) shape).quadTo(117.51191, 27.268145, 117.61802, 26.8506);
        ((GeneralPath) shape).lineTo(117.96667, 25.56489);
        ((GeneralPath) shape).lineTo(118.34976, 25.56489);
        ((GeneralPath) shape).lineTo(118.677734, 26.838198);
        ((GeneralPath) shape).lineTo(118.78798, 27.257122);
        ((GeneralPath) shape).lineTo(118.913376, 26.834064);
        ((GeneralPath) shape).lineTo(119.28958, 25.56489);
        ((GeneralPath) shape).lineTo(119.65201, 25.56489);
        ((GeneralPath) shape).lineTo(118.965744, 27.760105);
        ((GeneralPath) shape).lineTo(118.578514, 27.760105);
        ((GeneralPath) shape).lineTo(118.22987, 26.445457);
        ((GeneralPath) shape).lineTo(118.14443, 26.070631);
        ((GeneralPath) shape).lineTo(117.70071, 27.760105);
        ((GeneralPath) shape).lineTo(117.312096, 27.760105);
        ((GeneralPath) shape).closePath();
        ((GeneralPath) shape).moveTo(119.82494, 26.661808);
        ((GeneralPath) shape).quadTo(119.82494, 26.052715, 120.16395, 25.759193);
        ((GeneralPath) shape).quadTo(120.44782, 25.515282, 120.85434, 25.515282);
        ((GeneralPath) shape).quadTo(121.30772, 25.515282, 121.59504, 25.81156);
        ((GeneralPath) shape).quadTo(121.882355, 26.107838, 121.882355, 26.631493);
        ((GeneralPath) shape).quadTo(121.882355, 27.05455, 121.75489, 27.297773);
        ((GeneralPath) shape).quadTo(121.62742, 27.540997, 121.38489, 27.675356);
        ((GeneralPath) shape).quadTo(121.14235, 27.809715, 120.85434, 27.809715);
        ((GeneralPath) shape).quadTo(120.39407, 27.809715, 120.10951, 27.514126);
        ((GeneralPath) shape).quadTo(119.82494, 27.218536, 119.82494, 26.661808);
        ((GeneralPath) shape).closePath();
        ((GeneralPath) shape).moveTo(120.20804, 26.661808);
        ((GeneralPath) shape).quadTo(120.20804, 27.083488, 120.39201, 27.29364);
        ((GeneralPath) shape).quadTo(120.57598, 27.50379, 120.85434, 27.50379);
        ((GeneralPath) shape).quadTo(121.131325, 27.50379, 121.31529, 27.29295);
        ((GeneralPath) shape).quadTo(121.49926, 27.08211, 121.49926, 26.649406);
        ((GeneralPath) shape).quadTo(121.49926, 26.242886, 121.314606, 26.032734);
        ((GeneralPath) shape).quadTo(121.12995, 25.822584, 120.85434, 25.822584);
        ((GeneralPath) shape).quadTo(120.57598, 25.822584, 120.39201, 26.031357);
        ((GeneralPath) shape).quadTo(120.20804, 26.24013, 120.20804, 26.661808);
        ((GeneralPath) shape).closePath();
        ((GeneralPath) shape).moveTo(122.31437, 27.760105);
        ((GeneralPath) shape).lineTo(122.31437, 25.56489);
        ((GeneralPath) shape).lineTo(122.64924, 25.56489);
        ((GeneralPath) shape).lineTo(122.64924, 25.896997);
        ((GeneralPath) shape).quadTo(122.7774, 25.664108, 122.88557, 25.589695);
        ((GeneralPath) shape).quadTo(122.993744, 25.515282, 123.12466, 25.515282);
        ((GeneralPath) shape).quadTo(123.31207, 25.515282, 123.50638, 25.63517);
        ((GeneralPath) shape).lineTo(123.37822, 25.97968);
        ((GeneralPath) shape).quadTo(123.24179, 25.899754, 123.10537, 25.899754);
        ((GeneralPath) shape).quadTo(122.9841, 25.899754, 122.88695, 25.97279);
        ((GeneralPath) shape).quadTo(122.789795, 26.045826, 122.74845, 26.176739);
        ((GeneralPath) shape).quadTo(122.68644, 26.375177, 122.68644, 26.61082);
        ((GeneralPath) shape).lineTo(122.68644, 27.760105);
        ((GeneralPath) shape).lineTo(122.31437, 27.760105);
        ((GeneralPath) shape).closePath();
        ((GeneralPath) shape).moveTo(125.15176, 27.760105);
        ((GeneralPath) shape).lineTo(125.15176, 27.48312);
        ((GeneralPath) shape).quadTo(124.94367, 27.809715, 124.53853, 27.809715);
        ((GeneralPath) shape).quadTo(124.27532, 27.809715, 124.05553, 27.66502);
        ((GeneralPath) shape).quadTo(123.83573, 27.520327, 123.71446, 27.260567);
        ((GeneralPath) shape).quadTo(123.59319, 27.000807, 123.59319, 26.664564);
        ((GeneralPath) shape).quadTo(123.59319, 26.335215, 123.70275, 26.067875);
        ((GeneralPath) shape).quadTo(123.8123, 25.800535, 124.03141, 25.657907);
        ((GeneralPath) shape).quadTo(124.25052, 25.515282, 124.521996, 25.515282);
        ((GeneralPath) shape).quadTo(124.72043, 25.515282, 124.87546, 25.598652);
        ((GeneralPath) shape).quadTo(125.03049, 25.682024, 125.12695, 25.817072);
        ((GeneralPath) shape).lineTo(125.12695, 24.7298);
        ((GeneralPath) shape).lineTo(125.49764, 24.7298);
        ((GeneralPath) shape).lineTo(125.49764, 27.760105);
        ((GeneralPath) shape).lineTo(125.15176, 27.760105);
        ((GeneralPath) shape).closePath();
        ((GeneralPath) shape).moveTo(123.97629, 26.664564);
        ((GeneralPath) shape).quadTo(123.97629, 27.086245, 124.15406, 27.295017);
        ((GeneralPath) shape).quadTo(124.331825, 27.50379, 124.57298, 27.50379);
        ((GeneralPath) shape).quadTo(124.816895, 27.50379, 124.98777, 27.303974);
        ((GeneralPath) shape).quadTo(125.158646, 27.104158, 125.158646, 26.694881);
        ((GeneralPath) shape).quadTo(125.158646, 26.244263, 124.985016, 26.033422);
        ((GeneralPath) shape).quadTo(124.81138, 25.822584, 124.55644, 25.822584);
        ((GeneralPath) shape).quadTo(124.308395, 25.822584, 124.14234, 26.025156);
        ((GeneralPath) shape).quadTo(123.97629, 26.227726, 123.97629, 26.664564);
        ((GeneralPath) shape).closePath();
        ((GeneralPath) shape).moveTo(125.93793, 26.8506);
        ((GeneralPath) shape).lineTo(125.93793, 26.475773);
        ((GeneralPath) shape).lineTo(127.08032, 26.475773);
        ((GeneralPath) shape).lineTo(127.08032, 26.8506);
        ((GeneralPath) shape).lineTo(125.93793, 26.8506);
        ((GeneralPath) shape).closePath();
        ((GeneralPath) shape).moveTo(127.34352, 27.104158);
        ((GeneralPath) shape).lineTo(127.71146, 27.046282);
        ((GeneralPath) shape).quadTo(127.741776, 27.268145, 127.88371, 27.385967);
        ((GeneralPath) shape).quadTo(128.02565, 27.50379, 128.2792, 27.50379);
        ((GeneralPath) shape).quadTo(128.53552, 27.50379, 128.65955, 27.39906);
        ((GeneralPath) shape).quadTo(128.78357, 27.294329, 128.78357, 27.153769);
        ((GeneralPath) shape).quadTo(128.78357, 27.028366, 128.67471, 26.955332);
        ((GeneralPath) shape).quadTo(128.59753, 26.905722, 128.29437, 26.82993);
        ((GeneralPath) shape).quadTo(127.88509, 26.726576, 127.726616, 26.650784);
        ((GeneralPath) shape).quadTo(127.568146, 26.574993, 127.48684, 26.44201);
        ((GeneralPath) shape).quadTo(127.40553, 26.30903, 127.40553, 26.1478);
        ((GeneralPath) shape).quadTo(127.40553, 26.00035, 127.47237, 25.875639);
        ((GeneralPath) shape).quadTo(127.5392, 25.750925, 127.65496, 25.668243);
        ((GeneralPath) shape).quadTo(127.741776, 25.603476, 127.89198, 25.559378);
        ((GeneralPath) shape).quadTo(128.04219, 25.515282, 128.21306, 25.515282);
        ((GeneralPath) shape).quadTo(128.47214, 25.515282, 128.66713, 25.589695);
        ((GeneralPath) shape).quadTo(128.86212, 25.664108, 128.95514, 25.790888);
        ((GeneralPath) shape).quadTo(129.04816, 25.917667, 129.08398, 26.131264);
        ((GeneralPath) shape).lineTo(128.72018, 26.180874);
        ((GeneralPath) shape).quadTo(128.69537, 26.011375, 128.57617, 25.91629);
        ((GeneralPath) shape).quadTo(128.45697, 25.821205, 128.24063, 25.821205);
        ((GeneralPath) shape).quadTo(127.98431, 25.821205, 127.874756, 25.905954);
        ((GeneralPath) shape).quadTo(127.765205, 25.990704, 127.765205, 26.103703);
        ((GeneralPath) shape).quadTo(127.765205, 26.176739, 127.81068, 26.234617);
        ((GeneralPath) shape).quadTo(127.856155, 26.293873, 127.952614, 26.333836);
        ((GeneralPath) shape).quadTo(128.00911, 26.354506, 128.28197, 26.42892);
        ((GeneralPath) shape).quadTo(128.67609, 26.533651, 128.83249, 26.601175);
        ((GeneralPath) shape).quadTo(128.9889, 26.6687, 129.07779, 26.796856);
        ((GeneralPath) shape).quadTo(129.16667, 26.925014, 129.16667, 27.115183);
        ((GeneralPath) shape).quadTo(129.16667, 27.301218, 129.0578, 27.465204);
        ((GeneralPath) shape).quadTo(128.94893, 27.629192, 128.7443, 27.719454);
        ((GeneralPath) shape).quadTo(128.53966, 27.809715, 128.28197, 27.809715);
        ((GeneralPath) shape).quadTo(127.85339, 27.809715, 127.62946, 27.631948);
        ((GeneralPath) shape).quadTo(127.40553, 27.45418, 127.34352, 27.104158);
        ((GeneralPath) shape).closePath();
        ((GeneralPath) shape).moveTo(129.46985, 26.661808);
        ((GeneralPath) shape).quadTo(129.46985, 26.052715, 129.80884, 25.759193);
        ((GeneralPath) shape).quadTo(130.09271, 25.515282, 130.49924, 25.515282);
        ((GeneralPath) shape).quadTo(130.9526, 25.515282, 131.23993, 25.81156);
        ((GeneralPath) shape).quadTo(131.52725, 26.107838, 131.52725, 26.631493);
        ((GeneralPath) shape).quadTo(131.52725, 27.05455, 131.39978, 27.297773);
        ((GeneralPath) shape).quadTo(131.27232, 27.540997, 131.02979, 27.675356);
        ((GeneralPath) shape).quadTo(130.78725, 27.809715, 130.49924, 27.809715);
        ((GeneralPath) shape).quadTo(130.03897, 27.809715, 129.75441, 27.514126);
        ((GeneralPath) shape).quadTo(129.46985, 27.218536, 129.46985, 26.661808);
        ((GeneralPath) shape).closePath();
        ((GeneralPath) shape).moveTo(129.85294, 26.661808);
        ((GeneralPath) shape).quadTo(129.85294, 27.083488, 130.03691, 27.29364);
        ((GeneralPath) shape).quadTo(130.22087, 27.50379, 130.49924, 27.50379);
        ((GeneralPath) shape).quadTo(130.77623, 27.50379, 130.96019, 27.29295);
        ((GeneralPath) shape).quadTo(131.14417, 27.08211, 131.14417, 26.649406);
        ((GeneralPath) shape).quadTo(131.14417, 26.242886, 130.9595, 26.032734);
        ((GeneralPath) shape).quadTo(130.77484, 25.822584, 130.49924, 25.822584);
        ((GeneralPath) shape).quadTo(130.22087, 25.822584, 130.03691, 26.031357);
        ((GeneralPath) shape).quadTo(129.85294, 26.24013, 129.85294, 26.661808);
        ((GeneralPath) shape).closePath();
        ((GeneralPath) shape).moveTo(133.40207, 27.760105);
        ((GeneralPath) shape).lineTo(133.40207, 27.437645);
        ((GeneralPath) shape).quadTo(133.14575, 27.809715, 132.70479, 27.809715);
        ((GeneralPath) shape).quadTo(132.51048, 27.809715, 132.34236, 27.7353);
        ((GeneralPath) shape).quadTo(132.17424, 27.660887, 132.09224, 27.547888);
        ((GeneralPath) shape).quadTo(132.01025, 27.434889, 131.97717, 27.27228);
        ((GeneralPath) shape).quadTo(131.95512, 27.162037, 131.95512, 26.925014);
        ((GeneralPath) shape).lineTo(131.95512, 25.56489);
        ((GeneralPath) shape).lineTo(132.3272, 25.56489);
        ((GeneralPath) shape).lineTo(132.3272, 26.781698);
        ((GeneralPath) shape).quadTo(132.3272, 27.073843, 132.34924, 27.174438);
        ((GeneralPath) shape).quadTo(132.38507, 27.32189, 132.49876, 27.40526);
        ((GeneralPath) shape).quadTo(132.61246, 27.488632, 132.77919, 27.488632);
        ((GeneralPath) shape).quadTo(132.94731, 27.488632, 133.09407, 27.403193);
        ((GeneralPath) shape).quadTo(133.24084, 27.317755, 133.30147, 27.169617);
        ((GeneralPath) shape).quadTo(133.3621, 27.021477, 133.3621, 26.740356);
        ((GeneralPath) shape).lineTo(133.3621, 25.56489);
        ((GeneralPath) shape).lineTo(133.73418, 25.56489);
        ((GeneralPath) shape).lineTo(133.73418, 27.760105);
        ((GeneralPath) shape).lineTo(133.40207, 27.760105);
        ((GeneralPath) shape).closePath();
        ((GeneralPath) shape).moveTo(134.31363, 27.760105);
        ((GeneralPath) shape).lineTo(134.31363, 25.56489);
        ((GeneralPath) shape).lineTo(134.6485, 25.56489);
        ((GeneralPath) shape).lineTo(134.6485, 25.896997);
        ((GeneralPath) shape).quadTo(134.77666, 25.664108, 134.88483, 25.589695);
        ((GeneralPath) shape).quadTo(134.99301, 25.515282, 135.12392, 25.515282);
        ((GeneralPath) shape).quadTo(135.31133, 25.515282, 135.50563, 25.63517);
        ((GeneralPath) shape).lineTo(135.37747, 25.97968);
        ((GeneralPath) shape).quadTo(135.24106, 25.899754, 135.10463, 25.899754);
        ((GeneralPath) shape).quadTo(134.98335, 25.899754, 134.8862, 25.97279);
        ((GeneralPath) shape).quadTo(134.78906, 26.045826, 134.74771, 26.176739);
        ((GeneralPath) shape).quadTo(134.6857, 26.375177, 134.6857, 26.61082);
        ((GeneralPath) shape).lineTo(134.6857, 27.760105);
        ((GeneralPath) shape).lineTo(134.31363, 27.760105);
        ((GeneralPath) shape).closePath();
        ((GeneralPath) shape).moveTo(137.15929, 26.955332);
        ((GeneralPath) shape).lineTo(137.52585, 27.003563);
        ((GeneralPath) shape).quadTo(137.46521, 27.381145, 137.21855, 27.59543);
        ((GeneralPath) shape).quadTo(136.97188, 27.809715, 136.61221, 27.809715);
        ((GeneralPath) shape).quadTo(136.16159, 27.809715, 135.88736, 27.514814);
        ((GeneralPath) shape).quadTo(135.61313, 27.219913, 135.61313, 26.670076);
        ((GeneralPath) shape).quadTo(135.61313, 26.314543, 135.73096, 26.047894);
        ((GeneralPath) shape).quadTo(135.84879, 25.781242, 136.08994, 25.648262);
        ((GeneralPath) shape).quadTo(136.33109, 25.515282, 136.61359, 25.515282);
        ((GeneralPath) shape).quadTo(136.97188, 25.515282, 137.19925, 25.695805);
        ((GeneralPath) shape).quadTo(137.42664, 25.876328, 137.49002, 26.209812);
        ((GeneralPath) shape).lineTo(137.12898, 26.264935);
        ((GeneralPath) shape).quadTo(137.07661, 26.044447, 136.9457, 25.932827);
        ((GeneralPath) shape).quadTo(136.81479, 25.821205, 136.62875, 25.821205);
        ((GeneralPath) shape).quadTo(136.34763, 25.821205, 136.17192, 26.0224);
        ((GeneralPath) shape).quadTo(135.99623, 26.223593, 135.99623, 26.66043);
        ((GeneralPath) shape).quadTo(135.99623, 27.102781, 136.16573, 27.303286);
        ((GeneralPath) shape).quadTo(136.33522, 27.50379, 136.60808, 27.50379);
        ((GeneralPath) shape).quadTo(136.82718, 27.50379, 136.97395, 27.36943);
        ((GeneralPath) shape).quadTo(137.12071, 27.235073, 137.15929, 26.955332);
        ((GeneralPath) shape).closePath();
        ((GeneralPath) shape).moveTo(139.34624, 27.053171);
        ((GeneralPath) shape).lineTo(139.73071, 27.100025);
        ((GeneralPath) shape).quadTo(139.63977, 27.437645, 139.39378, 27.62368);
        ((GeneralPath) shape).quadTo(139.1478, 27.809715, 138.76608, 27.809715);
        ((GeneralPath) shape).quadTo(138.28377, 27.809715, 138.00197, 27.512747);
        ((GeneralPath) shape).quadTo(137.72015, 27.21578, 137.72015, 26.6811);
        ((GeneralPath) shape).quadTo(137.72015, 26.12713, 138.00542, 25.821205);
        ((GeneralPath) shape).quadTo(138.29066, 25.515282, 138.74542, 25.515282);
        ((GeneralPath) shape).quadTo(139.18501, 25.515282, 139.46407, 25.815004);
        ((GeneralPath) shape).quadTo(139.74312, 26.114727, 139.74312, 26.657675);
        ((GeneralPath) shape).quadTo(139.74312, 26.690748, 139.74174, 26.756893);
        ((GeneralPath) shape).lineTo(138.10463, 26.756893);
        ((GeneralPath) shape).quadTo(138.1253, 27.119318, 138.30927, 27.311554);
        ((GeneralPath) shape).quadTo(138.49324, 27.50379, 138.76747, 27.50379);
        ((GeneralPath) shape).quadTo(138.9728, 27.50379, 139.1175, 27.396303);
        ((GeneralPath) shape).quadTo(139.26218, 27.288816, 139.34624, 27.053171);
        ((GeneralPath) shape).closePath();
        ((GeneralPath) shape).moveTo(138.1253, 26.45097);
        ((GeneralPath) shape).lineTo(139.35037, 26.45097);
        ((GeneralPath) shape).quadTo(139.32558, 26.173983, 139.20981, 26.036179);
        ((GeneralPath) shape).quadTo(139.03204, 25.821205, 138.74956, 25.821205);
        ((GeneralPath) shape).quadTo(138.49324, 25.821205, 138.31822, 25.992771);
        ((GeneralPath) shape).quadTo(138.14322, 26.164337, 138.1253, 26.45097);
        ((GeneralPath) shape).closePath();

        g.fill(shape);
        shape = new GeneralPath();

        g.fill(shape);

        g.setTransform(transformations.pop()); // _0_0_1
        transformations.push(g.getTransform());
        g.transform(new AffineTransform(1, 0, 0, 1, 2.6726954f, 18.508413f));

        // _0_0_2

        // _0_0_2_0
        shape = new Rectangle2D.Double(88.72982788085938, 48.024940490722656, 36.08869934082031, 9.648689270019531);
        g.setStroke(new BasicStroke(0.2444532f, 0, 0, 4));
        g.draw(shape);

        // _0_0_2_1
        //  doc-lines 
        shape = new GeneralPath();

        g.fill(shape);
        shape = new GeneralPath();
        ((GeneralPath) shape).moveTo(97.09904, 54.08615);
        ((GeneralPath) shape).lineTo(97.09904, 53.809166);
        ((GeneralPath) shape).quadTo(96.89095, 54.13576, 96.48581, 54.13576);
        ((GeneralPath) shape).quadTo(96.2226, 54.13576, 96.00281, 53.991066);
        ((GeneralPath) shape).quadTo(95.78301, 53.84637, 95.66174, 53.586613);
        ((GeneralPath) shape).quadTo(95.540474, 53.32685, 95.540474, 52.990612);
        ((GeneralPath) shape).quadTo(95.540474, 52.66126, 95.65003, 52.39392);
        ((GeneralPath) shape).quadTo(95.75958, 52.12658, 95.97869, 51.983955);
        ((GeneralPath) shape).quadTo(96.1978, 51.841328, 96.46928, 51.841328);
        ((GeneralPath) shape).quadTo(96.66771, 51.841328, 96.82274, 51.924698);
        ((GeneralPath) shape).quadTo(96.97777, 52.008068, 97.074234, 52.143116);
        ((GeneralPath) shape).lineTo(97.074234, 51.055847);
        ((GeneralPath) shape).lineTo(97.44492, 51.055847);
        ((GeneralPath) shape).lineTo(97.44492, 54.08615);
        ((GeneralPath) shape).lineTo(97.09904, 54.08615);
        ((GeneralPath) shape).closePath();
        ((GeneralPath) shape).moveTo(95.92357, 52.990612);
        ((GeneralPath) shape).quadTo(95.92357, 53.41229, 96.10134, 53.621063);
        ((GeneralPath) shape).quadTo(96.279106, 53.829838, 96.52026, 53.829838);
        ((GeneralPath) shape).quadTo(96.764175, 53.829838, 96.93505, 53.63002);
        ((GeneralPath) shape).quadTo(97.10593, 53.430206, 97.10593, 53.020927);
        ((GeneralPath) shape).quadTo(97.10593, 52.57031, 96.9323, 52.35947);
        ((GeneralPath) shape).quadTo(96.75866, 52.14863, 96.50372, 52.14863);
        ((GeneralPath) shape).quadTo(96.25568, 52.14863, 96.08962, 52.3512);
        ((GeneralPath) shape).quadTo(95.92357, 52.553772, 95.92357, 52.990612);
        ((GeneralPath) shape).closePath();
        ((GeneralPath) shape).moveTo(97.89072, 52.987854);
        ((GeneralPath) shape).quadTo(97.89072, 52.37876, 98.22972, 52.08524);
        ((GeneralPath) shape).quadTo(98.513596, 51.841328, 98.92011, 51.841328);
        ((GeneralPath) shape).quadTo(99.37349, 51.841328, 99.66081, 52.137604);
        ((GeneralPath) shape).quadTo(99.94813, 52.433884, 99.94813, 52.95754);
        ((GeneralPath) shape).quadTo(99.94813, 53.380596, 99.82066, 53.623817);
        ((GeneralPath) shape).quadTo(99.69319, 53.867043, 99.45066, 54.0014);
        ((GeneralPath) shape).quadTo(99.20812, 54.13576, 98.92011, 54.13576);
        ((GeneralPath) shape).quadTo(98.45985, 54.13576, 98.175285, 53.84017);
        ((GeneralPath) shape).quadTo(97.89072, 53.544582, 97.89072, 52.987854);
        ((GeneralPath) shape).closePath();
        ((GeneralPath) shape).moveTo(98.27381, 52.987854);
        ((GeneralPath) shape).quadTo(98.27381, 53.409534, 98.45779, 53.619686);
        ((GeneralPath) shape).quadTo(98.641754, 53.829838, 98.92011, 53.829838);
        ((GeneralPath) shape).quadTo(99.1971, 53.829838, 99.381065, 53.618996);
        ((GeneralPath) shape).quadTo(99.56503, 53.408157, 99.56503, 52.975452);
        ((GeneralPath) shape).quadTo(99.56503, 52.56893, 99.38038, 52.35878);
        ((GeneralPath) shape).quadTo(99.195724, 52.14863, 98.92011, 52.14863);
        ((GeneralPath) shape).quadTo(98.641754, 52.14863, 98.45779, 52.357403);
        ((GeneralPath) shape).quadTo(98.27381, 52.566174, 98.27381, 52.987854);
        ((GeneralPath) shape).closePath();
        ((GeneralPath) shape).moveTo(101.81606, 53.281376);
        ((GeneralPath) shape).lineTo(102.18262, 53.32961);
        ((GeneralPath) shape).quadTo(102.12199, 53.70719, 101.87532, 53.921474);
        ((GeneralPath) shape).quadTo(101.62865, 54.13576, 101.26898, 54.13576);
        ((GeneralPath) shape).quadTo(100.81836, 54.13576, 100.54413, 53.84086);
        ((GeneralPath) shape).quadTo(100.269905, 53.54596, 100.269905, 52.996124);
        ((GeneralPath) shape).quadTo(100.269905, 52.64059, 100.387726, 52.37394);
        ((GeneralPath) shape).quadTo(100.50555, 52.10729, 100.746704, 51.974308);
        ((GeneralPath) shape).quadTo(100.98786, 51.841328, 101.270355, 51.841328);
        ((GeneralPath) shape).quadTo(101.62865, 51.841328, 101.856026, 52.02185);
        ((GeneralPath) shape).quadTo(102.0834, 52.202374, 102.14679, 52.53586);
        ((GeneralPath) shape).lineTo(101.78574, 52.59098);
        ((GeneralPath) shape).quadTo(101.733376, 52.370495, 101.60246, 52.258873);
        ((GeneralPath) shape).quadTo(101.47155, 52.14725, 101.285515, 52.14725);
        ((GeneralPath) shape).quadTo(101.004395, 52.14725, 100.8287, 52.348446);
        ((GeneralPath) shape).quadTo(100.653, 52.549637, 100.653, 52.986477);
        ((GeneralPath) shape).quadTo(100.653, 53.428825, 100.822495, 53.62933);
        ((GeneralPath) shape).quadTo(100.992, 53.829838, 101.26485, 53.829838);
        ((GeneralPath) shape).quadTo(101.483955, 53.829838, 101.630714, 53.695477);
        ((GeneralPath) shape).quadTo(101.77747, 53.56112, 101.81606, 53.281376);
        ((GeneralPath) shape).closePath();
        ((GeneralPath) shape).moveTo(102.356255, 53.176647);
        ((GeneralPath) shape).lineTo(102.356255, 52.80182);
        ((GeneralPath) shape).lineTo(103.49865, 52.80182);
        ((GeneralPath) shape).lineTo(103.49865, 53.176647);
        ((GeneralPath) shape).lineTo(102.356255, 53.176647);
        ((GeneralPath) shape).closePath();
        ((GeneralPath) shape).moveTo(103.90241, 54.08615);
        ((GeneralPath) shape).lineTo(103.90241, 51.055847);
        ((GeneralPath) shape).lineTo(104.27448, 51.055847);
        ((GeneralPath) shape).lineTo(104.27448, 54.08615);
        ((GeneralPath) shape).lineTo(103.90241, 54.08615);
        ((GeneralPath) shape).closePath();
        ((GeneralPath) shape).moveTo(104.85257, 51.483036);
        ((GeneralPath) shape).lineTo(104.85257, 51.055847);
        ((GeneralPath) shape).lineTo(105.22464, 51.055847);
        ((GeneralPath) shape).lineTo(105.22464, 51.483036);
        ((GeneralPath) shape).lineTo(104.85257, 51.483036);
        ((GeneralPath) shape).closePath();
        ((GeneralPath) shape).moveTo(104.85257, 54.08615);
        ((GeneralPath) shape).lineTo(104.85257, 51.890938);
        ((GeneralPath) shape).lineTo(105.22464, 51.890938);
        ((GeneralPath) shape).lineTo(105.22464, 54.08615);
        ((GeneralPath) shape).lineTo(104.85257, 54.08615);
        ((GeneralPath) shape).closePath();
        ((GeneralPath) shape).moveTo(105.7917, 54.08615);
        ((GeneralPath) shape).lineTo(105.7917, 51.890938);
        ((GeneralPath) shape).lineTo(106.12657, 51.890938);
        ((GeneralPath) shape).lineTo(106.12657, 52.202374);
        ((GeneralPath) shape).quadTo(106.36772, 51.841328, 106.82523, 51.841328);
        ((GeneralPath) shape).quadTo(107.023674, 51.841328, 107.18973, 51.912296);
        ((GeneralPath) shape).quadTo(107.35578, 51.983265, 107.43846, 52.099022);
        ((GeneralPath) shape).quadTo(107.52114, 52.214775, 107.554214, 52.374626);
        ((GeneralPath) shape).quadTo(107.57488, 52.47798, 107.57488, 52.735672);
        ((GeneralPath) shape).lineTo(107.57488, 54.08615);
        ((GeneralPath) shape).lineTo(107.20281, 54.08615);
        ((GeneralPath) shape).lineTo(107.20281, 52.75083);
        ((GeneralPath) shape).quadTo(107.20281, 52.523457, 107.15941, 52.410458);
        ((GeneralPath) shape).quadTo(107.116, 52.29746, 107.00575, 52.23062);
        ((GeneralPath) shape).quadTo(106.895515, 52.163788, 106.74668, 52.163788);
        ((GeneralPath) shape).quadTo(106.508286, 52.163788, 106.33603, 52.314682);
        ((GeneralPath) shape).quadTo(106.16377, 52.46558, 106.16377, 52.887257);
        ((GeneralPath) shape).lineTo(106.16377, 54.08615);
        ((GeneralPath) shape).lineTo(105.7917, 54.08615);
        ((GeneralPath) shape).closePath();
        ((GeneralPath) shape).moveTo(109.64814, 53.37922);
        ((GeneralPath) shape).lineTo(110.03261, 53.42607);
        ((GeneralPath) shape).quadTo(109.94166, 53.76369, 109.69568, 53.949726);
        ((GeneralPath) shape).quadTo(109.4497, 54.13576, 109.067986, 54.13576);
        ((GeneralPath) shape).quadTo(108.58567, 54.13576, 108.30386, 53.838795);
        ((GeneralPath) shape).quadTo(108.02205, 53.541824, 108.02205, 53.00715);
        ((GeneralPath) shape).quadTo(108.02205, 52.453175, 108.307304, 52.14725);
        ((GeneralPath) shape).quadTo(108.59256, 51.841328, 109.04731, 51.841328);
        ((GeneralPath) shape).quadTo(109.48691, 51.841328, 109.76596, 52.141052);
        ((GeneralPath) shape).quadTo(110.04501, 52.440773, 110.04501, 52.98372);
        ((GeneralPath) shape).quadTo(110.04501, 53.016792, 110.04363, 53.08294);
        ((GeneralPath) shape).lineTo(108.406525, 53.08294);
        ((GeneralPath) shape).quadTo(108.42719, 53.445362, 108.61116, 53.6376);
        ((GeneralPath) shape).quadTo(108.79513, 53.829838, 109.06936, 53.829838);
        ((GeneralPath) shape).quadTo(109.27469, 53.829838, 109.41938, 53.722347);
        ((GeneralPath) shape).quadTo(109.56408, 53.61486, 109.64814, 53.37922);
        ((GeneralPath) shape).closePath();
        ((GeneralPath) shape).moveTo(108.42719, 52.777016);
        ((GeneralPath) shape).lineTo(109.65227, 52.777016);
        ((GeneralPath) shape).quadTo(109.627464, 52.50003, 109.51171, 52.362225);
        ((GeneralPath) shape).quadTo(109.33395, 52.14725, 109.051445, 52.14725);
        ((GeneralPath) shape).quadTo(108.79513, 52.14725, 108.62012, 52.318817);
        ((GeneralPath) shape).quadTo(108.44511, 52.490383, 108.42719, 52.777016);
        ((GeneralPath) shape).closePath();
        ((GeneralPath) shape).moveTo(110.35163, 53.430206);
        ((GeneralPath) shape).lineTo(110.71957, 53.372326);
        ((GeneralPath) shape).quadTo(110.749886, 53.594193, 110.89182, 53.712013);
        ((GeneralPath) shape).quadTo(111.03376, 53.829838, 111.28732, 53.829838);
        ((GeneralPath) shape).quadTo(111.54363, 53.829838, 111.667656, 53.725105);
        ((GeneralPath) shape).quadTo(111.79168, 53.620373, 111.79168, 53.479813);
        ((GeneralPath) shape).quadTo(111.79168, 53.354412, 111.682816, 53.281376);
        ((GeneralPath) shape).quadTo(111.605644, 53.231766, 111.302475, 53.155975);
        ((GeneralPath) shape).quadTo(110.8932, 53.052624, 110.734726, 52.97683);
        ((GeneralPath) shape).quadTo(110.576256, 52.90104, 110.49495, 52.76806);
        ((GeneralPath) shape).quadTo(110.41364, 52.63508, 110.41364, 52.473846);
        ((GeneralPath) shape).quadTo(110.41364, 52.326397, 110.48048, 52.201683);
        ((GeneralPath) shape).quadTo(110.54731, 52.076973, 110.66307, 51.99429);
        ((GeneralPath) shape).quadTo(110.749886, 51.92952, 110.90009, 51.885426);
        ((GeneralPath) shape).quadTo(111.0503, 51.841328, 111.221176, 51.841328);
        ((GeneralPath) shape).quadTo(111.48025, 51.841328, 111.67524, 51.91574);
        ((GeneralPath) shape).quadTo(111.87023, 51.990154, 111.96325, 52.116936);
        ((GeneralPath) shape).quadTo(112.05627, 52.243713, 112.092094, 52.45731);
        ((GeneralPath) shape).lineTo(111.728294, 52.50692);
        ((GeneralPath) shape).quadTo(111.70348, 52.33742, 111.58429, 52.242336);
        ((GeneralPath) shape).quadTo(111.46509, 52.14725, 111.24873, 52.14725);
        ((GeneralPath) shape).quadTo(110.99242, 52.14725, 110.882866, 52.232002);
        ((GeneralPath) shape).quadTo(110.773315, 52.31675, 110.773315, 52.42975);
        ((GeneralPath) shape).quadTo(110.773315, 52.502785, 110.81879, 52.56066);
        ((GeneralPath) shape).quadTo(110.864265, 52.61992, 110.960724, 52.65988);
        ((GeneralPath) shape).quadTo(111.01723, 52.680553, 111.29008, 52.754967);
        ((GeneralPath) shape).quadTo(111.6842, 52.859695, 111.8406, 52.92722);
        ((GeneralPath) shape).quadTo(111.99701, 52.994743, 112.08589, 53.122902);
        ((GeneralPath) shape).quadTo(112.174774, 53.25106, 112.174774, 53.44123);
        ((GeneralPath) shape).quadTo(112.174774, 53.627266, 112.06591, 53.791252);
        ((GeneralPath) shape).quadTo(111.95705, 53.95524, 111.75241, 54.045498);
        ((GeneralPath) shape).quadTo(111.54777, 54.13576, 111.29008, 54.13576);
        ((GeneralPath) shape).quadTo(110.8615, 54.13576, 110.63757, 53.957993);
        ((GeneralPath) shape).quadTo(110.41364, 53.780228, 110.35163, 53.430206);
        ((GeneralPath) shape).closePath();

        g.fill(shape);
        shape = new GeneralPath();

        g.fill(shape);

        g.setTransform(transformations.pop()); // _0_0_2
        transformations.push(g.getTransform());
        g.transform(new AffineTransform(1, 0, 0, 1, 0, 8.504464f));

        // _0_0_3

        // _0_0_3_0
        shape = new Rectangle2D.Double(90.46707916259766, 94.52983856201172, 36.08869934082031, 9.648689270019531);
        g.draw(shape);

        // _0_0_3_1
        //  tokenize 
        shape = new GeneralPath();

        g.fill(shape);
        shape = new GeneralPath();
        ((GeneralPath) shape).moveTo(98.22445, 100.25756);
        ((GeneralPath) shape).lineTo(98.27819, 100.586914);
        ((GeneralPath) shape).quadTo(98.12109, 100.61999, 97.99707, 100.61999);
        ((GeneralPath) shape).quadTo(97.7945, 100.61999, 97.68288, 100.55591);
        ((GeneralPath) shape).quadTo(97.57126, 100.49183, 97.52578, 100.3871);
        ((GeneralPath) shape).quadTo(97.48031, 100.28237, 97.48031, 99.9475);
        ((GeneralPath) shape).lineTo(97.48031, 98.68522);
        ((GeneralPath) shape).lineTo(97.20746, 98.68522);
        ((GeneralPath) shape).lineTo(97.20746, 98.395836);
        ((GeneralPath) shape).lineTo(97.48031, 98.395836);
        ((GeneralPath) shape).lineTo(97.48031, 97.85151);
        ((GeneralPath) shape).lineTo(97.851, 97.628265);
        ((GeneralPath) shape).lineTo(97.851, 98.395836);
        ((GeneralPath) shape).lineTo(98.22445, 98.395836);
        ((GeneralPath) shape).lineTo(98.22445, 98.68522);
        ((GeneralPath) shape).lineTo(97.851, 98.68522);
        ((GeneralPath) shape).lineTo(97.851, 99.96818);
        ((GeneralPath) shape).quadTo(97.851, 100.12803, 97.87029, 100.1735);
        ((GeneralPath) shape).quadTo(97.88959, 100.21898, 97.93437, 100.24585);
        ((GeneralPath) shape).quadTo(97.97916, 100.27272, 98.06184, 100.27272);
        ((GeneralPath) shape).quadTo(98.12385, 100.27272, 98.22445, 100.25756);
        ((GeneralPath) shape).closePath();
        ((GeneralPath) shape).moveTo(98.44975, 99.49275);
        ((GeneralPath) shape).quadTo(98.44975, 98.88366, 98.78876, 98.59014);
        ((GeneralPath) shape).quadTo(99.07263, 98.34622, 99.47915, 98.34622);
        ((GeneralPath) shape).quadTo(99.932526, 98.34622, 100.21985, 98.6425);
        ((GeneralPath) shape).quadTo(100.507164, 98.93878, 100.507164, 99.46243);
        ((GeneralPath) shape).quadTo(100.507164, 99.88549, 100.3797, 100.128716);
        ((GeneralPath) shape).quadTo(100.25223, 100.37194, 100.0097, 100.5063);
        ((GeneralPath) shape).quadTo(99.76716, 100.640656, 99.47915, 100.640656);
        ((GeneralPath) shape).quadTo(99.01888, 100.640656, 98.73432, 100.34507);
        ((GeneralPath) shape).quadTo(98.44975, 100.04948, 98.44975, 99.49275);
        ((GeneralPath) shape).closePath();
        ((GeneralPath) shape).moveTo(98.83285, 99.49275);
        ((GeneralPath) shape).quadTo(98.83285, 99.91443, 99.01682, 100.12458);
        ((GeneralPath) shape).quadTo(99.20079, 100.33473, 99.47915, 100.33473);
        ((GeneralPath) shape).quadTo(99.756134, 100.33473, 99.9401, 100.12389);
        ((GeneralPath) shape).quadTo(100.12407, 99.913055, 100.12407, 99.480354);
        ((GeneralPath) shape).quadTo(100.12407, 99.07383, 99.939415, 98.86368);
        ((GeneralPath) shape).quadTo(99.75476, 98.65353, 99.47915, 98.65353);
        ((GeneralPath) shape).quadTo(99.20079, 98.65353, 99.01682, 98.8623);
        ((GeneralPath) shape).quadTo(98.83285, 99.071075, 98.83285, 99.49275);
        ((GeneralPath) shape).closePath();
        ((GeneralPath) shape).moveTo(100.944695, 100.59105);
        ((GeneralPath) shape).lineTo(100.944695, 97.560745);
        ((GeneralPath) shape).lineTo(101.316765, 97.560745);
        ((GeneralPath) shape).lineTo(101.316765, 99.2888);
        ((GeneralPath) shape).lineTo(102.197334, 98.395836);
        ((GeneralPath) shape).lineTo(102.67964, 98.395836);
        ((GeneralPath) shape).lineTo(101.840416, 99.21026);
        ((GeneralPath) shape).lineTo(102.7637, 100.59105);
        ((GeneralPath) shape).lineTo(102.30482, 100.59105);
        ((GeneralPath) shape).lineTo(101.57997, 99.46795);
        ((GeneralPath) shape).lineTo(101.316765, 99.72013);
        ((GeneralPath) shape).lineTo(101.316765, 100.59105);
        ((GeneralPath) shape).lineTo(100.944695, 100.59105);
        ((GeneralPath) shape).closePath();
        ((GeneralPath) shape).moveTo(104.56205, 99.88412);
        ((GeneralPath) shape).lineTo(104.94652, 99.93097);
        ((GeneralPath) shape).quadTo(104.85557, 100.268585, 104.60959, 100.45462);
        ((GeneralPath) shape).quadTo(104.36361, 100.640656, 103.981895, 100.640656);
        ((GeneralPath) shape).quadTo(103.49958, 100.640656, 103.21777, 100.34369);
        ((GeneralPath) shape).quadTo(102.93596, 100.04672, 102.93596, 99.51205);
        ((GeneralPath) shape).quadTo(102.93596, 98.95808, 103.221214, 98.65215);
        ((GeneralPath) shape).quadTo(103.50647, 98.34622, 103.96122, 98.34622);
        ((GeneralPath) shape).quadTo(104.40082, 98.34622, 104.67987, 98.64595);
        ((GeneralPath) shape).quadTo(104.95892, 98.94567, 104.95892, 99.48862);
        ((GeneralPath) shape).quadTo(104.95892, 99.52169, 104.95754, 99.58784);
        ((GeneralPath) shape).lineTo(103.320435, 99.58784);
        ((GeneralPath) shape).quadTo(103.3411, 99.950264, 103.52507, 100.142494);
        ((GeneralPath) shape).quadTo(103.70904, 100.33473, 103.98327, 100.33473);
        ((GeneralPath) shape).quadTo(104.1886, 100.33473, 104.33329, 100.22725);
        ((GeneralPath) shape).quadTo(104.47799, 100.11976, 104.56205, 99.88412);
        ((GeneralPath) shape).closePath();
        ((GeneralPath) shape).moveTo(103.3411, 99.28191);
        ((GeneralPath) shape).lineTo(104.56618, 99.28191);
        ((GeneralPath) shape).quadTo(104.541374, 99.00493, 104.42562, 98.86713);
        ((GeneralPath) shape).quadTo(104.247856, 98.65215, 103.965355, 98.65215);
        ((GeneralPath) shape).quadTo(103.70904, 98.65215, 103.53403, 98.823715);
        ((GeneralPath) shape).quadTo(103.35902, 98.99528, 103.3411, 99.28191);
        ((GeneralPath) shape).closePath();
        ((GeneralPath) shape).moveTo(105.41436, 100.59105);
        ((GeneralPath) shape).lineTo(105.41436, 98.395836);
        ((GeneralPath) shape).lineTo(105.74923, 98.395836);
        ((GeneralPath) shape).lineTo(105.74923, 98.70727);
        ((GeneralPath) shape).quadTo(105.99038, 98.34622, 106.44789, 98.34622);
        ((GeneralPath) shape).quadTo(106.64633, 98.34622, 106.812386, 98.41719);
        ((GeneralPath) shape).quadTo(106.97844, 98.48817, 107.06112, 98.60392);
        ((GeneralPath) shape).quadTo(107.1438, 98.71967, 107.17687, 98.879524);
        ((GeneralPath) shape).quadTo(107.19754, 98.98288, 107.19754, 99.24057);
        ((GeneralPath) shape).lineTo(107.19754, 100.59105);
        ((GeneralPath) shape).lineTo(106.82547, 100.59105);
        ((GeneralPath) shape).lineTo(106.82547, 99.25573);
        ((GeneralPath) shape).quadTo(106.82547, 99.02835, 106.78207, 98.91535);
        ((GeneralPath) shape).quadTo(106.738655, 98.80235, 106.62841, 98.73552);
        ((GeneralPath) shape).quadTo(106.51817, 98.668686, 106.36934, 98.668686);
        ((GeneralPath) shape).quadTo(106.13094, 98.668686, 105.95869, 98.81958);
        ((GeneralPath) shape).quadTo(105.78643, 98.970474, 105.78643, 99.39216);
        ((GeneralPath) shape).lineTo(105.78643, 100.59105);
        ((GeneralPath) shape).lineTo(105.41436, 100.59105);
        ((GeneralPath) shape).closePath();
        ((GeneralPath) shape).moveTo(107.77012, 97.98794);
        ((GeneralPath) shape).lineTo(107.77012, 97.560745);
        ((GeneralPath) shape).lineTo(108.14219, 97.560745);
        ((GeneralPath) shape).lineTo(108.14219, 97.98794);
        ((GeneralPath) shape).lineTo(107.77012, 97.98794);
        ((GeneralPath) shape).closePath();
        ((GeneralPath) shape).moveTo(107.77012, 100.59105);
        ((GeneralPath) shape).lineTo(107.77012, 98.395836);
        ((GeneralPath) shape).lineTo(108.14219, 98.395836);
        ((GeneralPath) shape).lineTo(108.14219, 100.59105);
        ((GeneralPath) shape).lineTo(107.77012, 100.59105);
        ((GeneralPath) shape).closePath();
        ((GeneralPath) shape).moveTo(108.512184, 100.59105);
        ((GeneralPath) shape).lineTo(108.512184, 100.28926);
        ((GeneralPath) shape).lineTo(109.909515, 98.68522);
        ((GeneralPath) shape).quadTo(109.67249, 98.697624, 109.49059, 98.697624);
        ((GeneralPath) shape).lineTo(108.59487, 98.697624);
        ((GeneralPath) shape).lineTo(108.59487, 98.395836);
        ((GeneralPath) shape).lineTo(110.38908, 98.395836);
        ((GeneralPath) shape).lineTo(110.38908, 98.64113);
        ((GeneralPath) shape).lineTo(109.2012, 100.034325);
        ((GeneralPath) shape).lineTo(108.97108, 100.28926);
        ((GeneralPath) shape).quadTo(109.22188, 100.269966, 109.44099, 100.269966);
        ((GeneralPath) shape).lineTo(110.45522, 100.269966);
        ((GeneralPath) shape).lineTo(110.45522, 100.59105);
        ((GeneralPath) shape).lineTo(108.512184, 100.59105);
        ((GeneralPath) shape).closePath();
        ((GeneralPath) shape).moveTo(112.32798, 99.88412);
        ((GeneralPath) shape).lineTo(112.71245, 99.93097);
        ((GeneralPath) shape).quadTo(112.6215, 100.268585, 112.37552, 100.45462);
        ((GeneralPath) shape).quadTo(112.12954, 100.640656, 111.747826, 100.640656);
        ((GeneralPath) shape).quadTo(111.26551, 100.640656, 110.9837, 100.34369);
        ((GeneralPath) shape).quadTo(110.70189, 100.04672, 110.70189, 99.51205);
        ((GeneralPath) shape).quadTo(110.70189, 98.95808, 110.987144, 98.65215);
        ((GeneralPath) shape).quadTo(111.2724, 98.34622, 111.72715, 98.34622);
        ((GeneralPath) shape).quadTo(112.16675, 98.34622, 112.4458, 98.64595);
        ((GeneralPath) shape).quadTo(112.72485, 98.94567, 112.72485, 99.48862);
        ((GeneralPath) shape).quadTo(112.72485, 99.52169, 112.72347, 99.58784);
        ((GeneralPath) shape).lineTo(111.086365, 99.58784);
        ((GeneralPath) shape).quadTo(111.10703, 99.950264, 111.291, 100.142494);
        ((GeneralPath) shape).quadTo(111.47497, 100.33473, 111.7492, 100.33473);
        ((GeneralPath) shape).quadTo(111.95453, 100.33473, 112.09922, 100.22725);
        ((GeneralPath) shape).quadTo(112.24392, 100.11976, 112.32798, 99.88412);
        ((GeneralPath) shape).closePath();
        ((GeneralPath) shape).moveTo(111.10703, 99.28191);
        ((GeneralPath) shape).lineTo(112.33211, 99.28191);
        ((GeneralPath) shape).quadTo(112.307304, 99.00493, 112.19155, 98.86713);
        ((GeneralPath) shape).quadTo(112.01379, 98.65215, 111.731285, 98.65215);
        ((GeneralPath) shape).quadTo(111.47497, 98.65215, 111.29996, 98.823715);
        ((GeneralPath) shape).quadTo(111.12495, 98.99528, 111.10703, 99.28191);
        ((GeneralPath) shape).closePath();

        g.fill(shape);
        shape = new GeneralPath();

        g.fill(shape);

        g.setTransform(transformations.pop()); // _0_0_3
        transformations.push(g.getTransform());
        g.transform(new AffineTransform(1, 0, 0, 1, -3.96875f, 35.529762f));

        // _0_0_4

        // _0_0_4_0
        shape = new Rectangle2D.Double(12.69164752960205, 66.60017395019531, 36.08869934082031, 9.648689270019531);
        g.draw(shape);

        // _0_0_4_1
        //  doc-count 
        shape = new GeneralPath();

        g.fill(shape);
        shape = new GeneralPath();
        ((GeneralPath) shape).moveTo(21.060858, 72.661385);
        ((GeneralPath) shape).lineTo(21.060858, 72.3844);
        ((GeneralPath) shape).quadTo(20.852774, 72.71099, 20.447632, 72.71099);
        ((GeneralPath) shape).quadTo(20.184425, 72.71099, 19.964628, 72.5663);
        ((GeneralPath) shape).quadTo(19.744831, 72.42161, 19.623564, 72.16184);
        ((GeneralPath) shape).quadTo(19.502296, 71.902084, 19.502296, 71.56584);
        ((GeneralPath) shape).quadTo(19.502296, 71.236496, 19.61185, 70.969154);
        ((GeneralPath) shape).quadTo(19.721405, 70.70181, 19.940514, 70.55919);
        ((GeneralPath) shape).quadTo(20.15962, 70.41656, 20.431095, 70.41656);
        ((GeneralPath) shape).quadTo(20.629532, 70.41656, 20.784561, 70.49993);
        ((GeneralPath) shape).quadTo(20.93959, 70.583305, 21.036053, 70.71835);
        ((GeneralPath) shape).lineTo(21.036053, 69.63108);
        ((GeneralPath) shape).lineTo(21.406746, 69.63108);
        ((GeneralPath) shape).lineTo(21.406746, 72.661385);
        ((GeneralPath) shape).lineTo(21.060858, 72.661385);
        ((GeneralPath) shape).closePath();
        ((GeneralPath) shape).moveTo(19.885391, 71.56584);
        ((GeneralPath) shape).quadTo(19.885391, 71.987526, 20.063158, 72.1963);
        ((GeneralPath) shape).quadTo(20.240925, 72.40507, 20.482082, 72.40507);
        ((GeneralPath) shape).quadTo(20.725994, 72.40507, 20.896872, 72.20525);
        ((GeneralPath) shape).quadTo(21.067749, 72.00544, 21.067749, 71.59616);
        ((GeneralPath) shape).quadTo(21.067749, 71.145546, 20.894115, 70.9347);
        ((GeneralPath) shape).quadTo(20.720482, 70.72386, 20.465546, 70.72386);
        ((GeneralPath) shape).quadTo(20.217499, 70.72386, 20.051445, 70.92644);
        ((GeneralPath) shape).quadTo(19.885391, 71.129005, 19.885391, 71.56584);
        ((GeneralPath) shape).closePath();
        ((GeneralPath) shape).moveTo(21.852541, 71.56309);
        ((GeneralPath) shape).quadTo(21.852541, 70.953995, 22.191538, 70.66048);
        ((GeneralPath) shape).quadTo(22.475414, 70.41656, 22.881935, 70.41656);
        ((GeneralPath) shape).quadTo(23.33531, 70.41656, 23.622631, 70.71284);
        ((GeneralPath) shape).quadTo(23.909952, 71.00912, 23.909952, 71.53277);
        ((GeneralPath) shape).quadTo(23.909952, 71.955826, 23.782482, 72.19905);
        ((GeneralPath) shape).quadTo(23.655014, 72.442276, 23.41248, 72.57664);
        ((GeneralPath) shape).quadTo(23.169945, 72.71099, 22.881935, 72.71099);
        ((GeneralPath) shape).quadTo(22.42167, 72.71099, 22.137106, 72.415405);
        ((GeneralPath) shape).quadTo(21.852541, 72.11981, 21.852541, 71.56309);
        ((GeneralPath) shape).closePath();
        ((GeneralPath) shape).moveTo(22.235636, 71.56309);
        ((GeneralPath) shape).quadTo(22.235636, 71.984764, 22.419603, 72.194916);
        ((GeneralPath) shape).quadTo(22.60357, 72.40507, 22.881935, 72.40507);
        ((GeneralPath) shape).quadTo(23.15892, 72.40507, 23.34289, 72.19423);
        ((GeneralPath) shape).quadTo(23.526857, 71.98339, 23.526857, 71.55069);
        ((GeneralPath) shape).quadTo(23.526857, 71.144165, 23.3422, 70.93401);
        ((GeneralPath) shape).quadTo(23.157543, 70.72386, 22.881935, 70.72386);
        ((GeneralPath) shape).quadTo(22.60357, 70.72386, 22.419603, 70.93263);
        ((GeneralPath) shape).quadTo(22.235636, 71.14141, 22.235636, 71.56309);
        ((GeneralPath) shape).closePath();
        ((GeneralPath) shape).moveTo(25.777882, 71.85661);
        ((GeneralPath) shape).lineTo(26.14444, 71.90484);
        ((GeneralPath) shape).quadTo(26.083807, 72.282425, 25.837137, 72.49671);
        ((GeneralPath) shape).quadTo(25.59047, 72.71099, 25.2308, 72.71099);
        ((GeneralPath) shape).quadTo(24.780182, 72.71099, 24.505953, 72.41609);
        ((GeneralPath) shape).quadTo(24.231724, 72.12119, 24.231724, 71.57136);
        ((GeneralPath) shape).quadTo(24.231724, 71.21582, 24.349545, 70.94917);
        ((GeneralPath) shape).quadTo(24.467367, 70.682526, 24.708525, 70.54954);
        ((GeneralPath) shape).quadTo(24.94968, 70.41656, 25.23218, 70.41656);
        ((GeneralPath) shape).quadTo(25.59047, 70.41656, 25.817844, 70.597084);
        ((GeneralPath) shape).quadTo(26.045221, 70.7776, 26.10861, 71.11109);
        ((GeneralPath) shape).lineTo(25.747564, 71.166214);
        ((GeneralPath) shape).quadTo(25.6952, 70.945724, 25.564285, 70.83411);
        ((GeneralPath) shape).quadTo(25.433372, 70.72249, 25.247337, 70.72249);
        ((GeneralPath) shape).quadTo(24.966217, 70.72249, 24.790518, 70.923676);
        ((GeneralPath) shape).quadTo(24.614819, 71.12487, 24.614819, 71.56171);
        ((GeneralPath) shape).quadTo(24.614819, 72.00406, 24.784317, 72.20457);
        ((GeneralPath) shape).quadTo(24.953815, 72.40507, 25.226667, 72.40507);
        ((GeneralPath) shape).quadTo(25.445774, 72.40507, 25.592535, 72.27071);
        ((GeneralPath) shape).quadTo(25.739296, 72.13635, 25.777882, 71.85661);
        ((GeneralPath) shape).closePath();
        ((GeneralPath) shape).moveTo(26.318073, 71.75188);
        ((GeneralPath) shape).lineTo(26.318073, 71.37705);
        ((GeneralPath) shape).lineTo(27.460466, 71.37705);
        ((GeneralPath) shape).lineTo(27.460466, 71.75188);
        ((GeneralPath) shape).lineTo(26.318073, 71.75188);
        ((GeneralPath) shape).closePath();
        ((GeneralPath) shape).moveTo(29.304281, 71.85661);
        ((GeneralPath) shape).lineTo(29.67084, 71.90484);
        ((GeneralPath) shape).quadTo(29.610207, 72.282425, 29.363537, 72.49671);
        ((GeneralPath) shape).quadTo(29.116869, 72.71099, 28.7572, 72.71099);
        ((GeneralPath) shape).quadTo(28.306581, 72.71099, 28.032352, 72.41609);
        ((GeneralPath) shape).quadTo(27.758123, 72.12119, 27.758123, 71.57136);
        ((GeneralPath) shape).quadTo(27.758123, 71.21582, 27.875944, 70.94917);
        ((GeneralPath) shape).quadTo(27.993767, 70.682526, 28.234924, 70.54954);
        ((GeneralPath) shape).quadTo(28.47608, 70.41656, 28.75858, 70.41656);
        ((GeneralPath) shape).quadTo(29.116869, 70.41656, 29.344244, 70.597084);
        ((GeneralPath) shape).quadTo(29.57162, 70.7776, 29.63501, 71.11109);
        ((GeneralPath) shape).lineTo(29.273964, 71.166214);
        ((GeneralPath) shape).quadTo(29.2216, 70.945724, 29.090685, 70.83411);
        ((GeneralPath) shape).quadTo(28.959772, 70.72249, 28.773737, 70.72249);
        ((GeneralPath) shape).quadTo(28.492617, 70.72249, 28.316917, 70.923676);
        ((GeneralPath) shape).quadTo(28.141218, 71.12487, 28.141218, 71.56171);
        ((GeneralPath) shape).quadTo(28.141218, 72.00406, 28.310717, 72.20457);
        ((GeneralPath) shape).quadTo(28.480215, 72.40507, 28.753067, 72.40507);
        ((GeneralPath) shape).quadTo(28.972174, 72.40507, 29.118935, 72.27071);
        ((GeneralPath) shape).quadTo(29.265696, 72.13635, 29.304281, 71.85661);
        ((GeneralPath) shape).closePath();
        ((GeneralPath) shape).moveTo(29.849985, 71.56309);
        ((GeneralPath) shape).quadTo(29.849985, 70.953995, 30.188982, 70.66048);
        ((GeneralPath) shape).quadTo(30.472858, 70.41656, 30.87938, 70.41656);
        ((GeneralPath) shape).quadTo(31.332754, 70.41656, 31.620075, 70.71284);
        ((GeneralPath) shape).quadTo(31.907396, 71.00912, 31.907396, 71.53277);
        ((GeneralPath) shape).quadTo(31.907396, 71.955826, 31.779926, 72.19905);
        ((GeneralPath) shape).quadTo(31.652458, 72.442276, 31.409924, 72.57664);
        ((GeneralPath) shape).quadTo(31.167389, 72.71099, 30.87938, 72.71099);
        ((GeneralPath) shape).quadTo(30.419115, 72.71099, 30.13455, 72.415405);
        ((GeneralPath) shape).quadTo(29.849985, 72.11981, 29.849985, 71.56309);
        ((GeneralPath) shape).closePath();
        ((GeneralPath) shape).moveTo(30.23308, 71.56309);
        ((GeneralPath) shape).quadTo(30.23308, 71.984764, 30.417048, 72.194916);
        ((GeneralPath) shape).quadTo(30.601015, 72.40507, 30.87938, 72.40507);
        ((GeneralPath) shape).quadTo(31.156364, 72.40507, 31.340334, 72.19423);
        ((GeneralPath) shape).quadTo(31.524302, 71.98339, 31.524302, 71.55069);
        ((GeneralPath) shape).quadTo(31.524302, 71.144165, 31.339643, 70.93401);
        ((GeneralPath) shape).quadTo(31.154987, 70.72386, 30.87938, 70.72386);
        ((GeneralPath) shape).quadTo(30.601015, 70.72386, 30.417048, 70.93263);
        ((GeneralPath) shape).quadTo(30.23308, 71.14141, 30.23308, 71.56309);
        ((GeneralPath) shape).closePath();
        ((GeneralPath) shape).moveTo(33.78222, 72.661385);
        ((GeneralPath) shape).lineTo(33.78222, 72.33892);
        ((GeneralPath) shape).quadTo(33.5259, 72.71099, 33.08493, 72.71099);
        ((GeneralPath) shape).quadTo(32.89063, 72.71099, 32.722507, 72.63658);
        ((GeneralPath) shape).quadTo(32.554386, 72.562164, 32.472393, 72.449165);
        ((GeneralPath) shape).quadTo(32.3904, 72.33617, 32.357327, 72.17356);
        ((GeneralPath) shape).quadTo(32.335278, 72.06332, 32.335278, 71.826294);
        ((GeneralPath) shape).lineTo(32.335278, 70.46617);
        ((GeneralPath) shape).lineTo(32.707348, 70.46617);
        ((GeneralPath) shape).lineTo(32.707348, 71.682976);
        ((GeneralPath) shape).quadTo(32.707348, 71.97512, 32.729397, 72.07572);
        ((GeneralPath) shape).quadTo(32.765224, 72.22317, 32.878914, 72.30654);
        ((GeneralPath) shape).quadTo(32.992603, 72.38991, 33.159344, 72.38991);
        ((GeneralPath) shape).quadTo(33.327465, 72.38991, 33.474228, 72.304474);
        ((GeneralPath) shape).quadTo(33.620987, 72.21903, 33.68162, 72.07089);
        ((GeneralPath) shape).quadTo(33.742256, 71.92275, 33.742256, 71.64164);
        ((GeneralPath) shape).lineTo(33.742256, 70.46617);
        ((GeneralPath) shape).lineTo(34.114326, 70.46617);
        ((GeneralPath) shape).lineTo(34.114326, 72.661385);
        ((GeneralPath) shape).lineTo(33.78222, 72.661385);
        ((GeneralPath) shape).closePath();
        ((GeneralPath) shape).moveTo(34.697926, 72.661385);
        ((GeneralPath) shape).lineTo(34.697926, 70.46617);
        ((GeneralPath) shape).lineTo(35.032787, 70.46617);
        ((GeneralPath) shape).lineTo(35.032787, 70.7776);
        ((GeneralPath) shape).quadTo(35.273945, 70.41656, 35.731453, 70.41656);
        ((GeneralPath) shape).quadTo(35.92989, 70.41656, 36.095943, 70.487526);
        ((GeneralPath) shape).quadTo(36.261997, 70.5585, 36.34468, 70.674255);
        ((GeneralPath) shape).quadTo(36.42736, 70.79001, 36.460434, 70.94986);
        ((GeneralPath) shape).quadTo(36.481106, 71.053215, 36.481106, 71.310905);
        ((GeneralPath) shape).lineTo(36.481106, 72.661385);
        ((GeneralPath) shape).lineTo(36.109035, 72.661385);
        ((GeneralPath) shape).lineTo(36.109035, 71.326065);
        ((GeneralPath) shape).quadTo(36.109035, 71.09869, 36.065628, 70.98569);
        ((GeneralPath) shape).quadTo(36.022217, 70.87269, 35.911976, 70.805855);
        ((GeneralPath) shape).quadTo(35.80173, 70.73902, 35.652905, 70.73902);
        ((GeneralPath) shape).quadTo(35.414505, 70.73902, 35.24225, 70.889915);
        ((GeneralPath) shape).quadTo(35.069996, 71.04081, 35.069996, 71.462494);
        ((GeneralPath) shape).lineTo(35.069996, 72.661385);
        ((GeneralPath) shape).lineTo(34.697926, 72.661385);
        ((GeneralPath) shape).closePath();
        ((GeneralPath) shape).moveTo(37.863968, 72.327896);
        ((GeneralPath) shape).lineTo(37.91771, 72.65725);
        ((GeneralPath) shape).quadTo(37.760612, 72.69032, 37.63659, 72.69032);
        ((GeneralPath) shape).quadTo(37.434017, 72.69032, 37.3224, 72.62624);
        ((GeneralPath) shape).quadTo(37.210777, 72.562164, 37.165302, 72.457436);
        ((GeneralPath) shape).quadTo(37.119827, 72.35271, 37.119827, 72.01784);
        ((GeneralPath) shape).lineTo(37.119827, 70.755554);
        ((GeneralPath) shape).lineTo(36.846973, 70.755554);
        ((GeneralPath) shape).lineTo(36.846973, 70.46617);
        ((GeneralPath) shape).lineTo(37.119827, 70.46617);
        ((GeneralPath) shape).lineTo(37.119827, 69.921844);
        ((GeneralPath) shape).lineTo(37.490517, 69.6986);
        ((GeneralPath) shape).lineTo(37.490517, 70.46617);
        ((GeneralPath) shape).lineTo(37.863968, 70.46617);
        ((GeneralPath) shape).lineTo(37.863968, 70.755554);
        ((GeneralPath) shape).lineTo(37.490517, 70.755554);
        ((GeneralPath) shape).lineTo(37.490517, 72.03851);
        ((GeneralPath) shape).quadTo(37.490517, 72.198364, 37.50981, 72.243835);
        ((GeneralPath) shape).quadTo(37.529102, 72.289314, 37.57389, 72.316185);
        ((GeneralPath) shape).quadTo(37.618675, 72.343056, 37.70136, 72.343056);
        ((GeneralPath) shape).quadTo(37.76337, 72.343056, 37.863968, 72.327896);
        ((GeneralPath) shape).closePath();

        g.fill(shape);
        shape = new GeneralPath();

        g.fill(shape);

        g.setTransform(transformations.pop()); // _0_0_4
        transformations.push(g.getTransform());
        g.transform(new AffineTransform(1, 0, 0, 1, -9.888972f, 22.049736f));

        // _0_0_5

        // _0_0_5_0
        shape = new Rectangle2D.Double(62.00287628173828, 149.85462951660156, 36.08869934082031, 9.648689270019531);
        g.draw(shape);

        // _0_0_5_1
        //  tf-idf 
        shape = new GeneralPath();

        g.fill(shape);
        shape = new GeneralPath();
        ((GeneralPath) shape).moveTo(69.76024, 155.58237);
        ((GeneralPath) shape).lineTo(69.81398, 155.91171);
        ((GeneralPath) shape).quadTo(69.65688, 155.9448, 69.53286, 155.9448);
        ((GeneralPath) shape).quadTo(69.33029, 155.9448, 69.218666, 155.8807);
        ((GeneralPath) shape).quadTo(69.10705, 155.81664, 69.06157, 155.7119);
        ((GeneralPath) shape).quadTo(69.0161, 155.60716, 69.0161, 155.27231);
        ((GeneralPath) shape).lineTo(69.0161, 154.01003);
        ((GeneralPath) shape).lineTo(68.74325, 154.01003);
        ((GeneralPath) shape).lineTo(68.74325, 153.72063);
        ((GeneralPath) shape).lineTo(69.0161, 153.72063);
        ((GeneralPath) shape).lineTo(69.0161, 153.17632);
        ((GeneralPath) shape).lineTo(69.38679, 152.95306);
        ((GeneralPath) shape).lineTo(69.38679, 153.72063);
        ((GeneralPath) shape).lineTo(69.76024, 153.72063);
        ((GeneralPath) shape).lineTo(69.76024, 154.01003);
        ((GeneralPath) shape).lineTo(69.38679, 154.01003);
        ((GeneralPath) shape).lineTo(69.38679, 155.29297);
        ((GeneralPath) shape).quadTo(69.38679, 155.45282, 69.40608, 155.4983);
        ((GeneralPath) shape).quadTo(69.42538, 155.54378, 69.47016, 155.57065);
        ((GeneralPath) shape).quadTo(69.514946, 155.59752, 69.597626, 155.59752);
        ((GeneralPath) shape).quadTo(69.65964, 155.59752, 69.76024, 155.58237);
        ((GeneralPath) shape).closePath();
        ((GeneralPath) shape).moveTo(70.21292, 155.91585);
        ((GeneralPath) shape).lineTo(70.21292, 154.01003);
        ((GeneralPath) shape).lineTo(69.88495, 154.01003);
        ((GeneralPath) shape).lineTo(69.88495, 153.72063);
        ((GeneralPath) shape).lineTo(70.21292, 153.72063);
        ((GeneralPath) shape).lineTo(70.21292, 153.48637);
        ((GeneralPath) shape).quadTo(70.21292, 153.26588, 70.252884, 153.15839);
        ((GeneralPath) shape).quadTo(70.306625, 153.0137, 70.44167, 152.92343);
        ((GeneralPath) shape).quadTo(70.57672, 152.83318, 70.82064, 152.83318);
        ((GeneralPath) shape).quadTo(70.97773, 152.83318, 71.1679, 152.87038);
        ((GeneralPath) shape).lineTo(71.11278, 153.1956);
        ((GeneralPath) shape).quadTo(70.997025, 153.17493, 70.89368, 153.17493);
        ((GeneralPath) shape).quadTo(70.724174, 153.17493, 70.65389, 153.24728);
        ((GeneralPath) shape).quadTo(70.58362, 153.31963, 70.58362, 153.51807);
        ((GeneralPath) shape).lineTo(70.58362, 153.72063);
        ((GeneralPath) shape).lineTo(71.0108, 153.72063);
        ((GeneralPath) shape).lineTo(71.0108, 154.01003);
        ((GeneralPath) shape).lineTo(70.58362, 154.01003);
        ((GeneralPath) shape).lineTo(70.58362, 155.91585);
        ((GeneralPath) shape).lineTo(70.21292, 155.91585);
        ((GeneralPath) shape).closePath();
        ((GeneralPath) shape).moveTo(71.15619, 155.00635);
        ((GeneralPath) shape).lineTo(71.15619, 154.63152);
        ((GeneralPath) shape).lineTo(72.298584, 154.63152);
        ((GeneralPath) shape).lineTo(72.298584, 155.00635);
        ((GeneralPath) shape).lineTo(71.15619, 155.00635);
        ((GeneralPath) shape).closePath();
        ((GeneralPath) shape).moveTo(72.712, 153.31273);
        ((GeneralPath) shape).lineTo(72.712, 152.88554);
        ((GeneralPath) shape).lineTo(73.08407, 152.88554);
        ((GeneralPath) shape).lineTo(73.08407, 153.31273);
        ((GeneralPath) shape).lineTo(72.712, 153.31273);
        ((GeneralPath) shape).closePath();
        ((GeneralPath) shape).moveTo(72.712, 155.91585);
        ((GeneralPath) shape).lineTo(72.712, 153.72063);
        ((GeneralPath) shape).lineTo(73.08407, 153.72063);
        ((GeneralPath) shape).lineTo(73.08407, 155.91585);
        ((GeneralPath) shape).lineTo(72.712, 155.91585);
        ((GeneralPath) shape).closePath();
        ((GeneralPath) shape).moveTo(75.07464, 155.91585);
        ((GeneralPath) shape).lineTo(75.07464, 155.63885);
        ((GeneralPath) shape).quadTo(74.866554, 155.96545, 74.46141, 155.96545);
        ((GeneralPath) shape).quadTo(74.198204, 155.96545, 73.97841, 155.82077);
        ((GeneralPath) shape).quadTo(73.75861, 155.67607, 73.637344, 155.4163);
        ((GeneralPath) shape).quadTo(73.516075, 155.15656, 73.516075, 154.82031);
        ((GeneralPath) shape).quadTo(73.516075, 154.49095, 73.62563, 154.22362);
        ((GeneralPath) shape).quadTo(73.73518, 153.95628, 73.95429, 153.81364);
        ((GeneralPath) shape).quadTo(74.1734, 153.67102, 74.44488, 153.67102);
        ((GeneralPath) shape).quadTo(74.64331, 153.67102, 74.79834, 153.7544);
        ((GeneralPath) shape).quadTo(74.95337, 153.83777, 75.049835, 153.97281);
        ((GeneralPath) shape).lineTo(75.049835, 152.88554);
        ((GeneralPath) shape).lineTo(75.420525, 152.88554);
        ((GeneralPath) shape).lineTo(75.420525, 155.91585);
        ((GeneralPath) shape).lineTo(75.07464, 155.91585);
        ((GeneralPath) shape).closePath();
        ((GeneralPath) shape).moveTo(73.89917, 154.82031);
        ((GeneralPath) shape).quadTo(73.89917, 155.24199, 74.07694, 155.45076);
        ((GeneralPath) shape).quadTo(74.25471, 155.65953, 74.495865, 155.65953);
        ((GeneralPath) shape).quadTo(74.73978, 155.65953, 74.91065, 155.45972);
        ((GeneralPath) shape).quadTo(75.08153, 155.2599, 75.08153, 154.85063);
        ((GeneralPath) shape).quadTo(75.08153, 154.40001, 74.9079, 154.18916);
        ((GeneralPath) shape).quadTo(74.73426, 153.97833, 74.479324, 153.97833);
        ((GeneralPath) shape).quadTo(74.23128, 153.97833, 74.06522, 154.1809);
        ((GeneralPath) shape).quadTo(73.89917, 154.38347, 73.89917, 154.82031);
        ((GeneralPath) shape).closePath();
        ((GeneralPath) shape).moveTo(76.0937, 155.91585);
        ((GeneralPath) shape).lineTo(76.0937, 154.01003);
        ((GeneralPath) shape).lineTo(75.765724, 154.01003);
        ((GeneralPath) shape).lineTo(75.765724, 153.72063);
        ((GeneralPath) shape).lineTo(76.0937, 153.72063);
        ((GeneralPath) shape).lineTo(76.0937, 153.48637);
        ((GeneralPath) shape).quadTo(76.0937, 153.26588, 76.13366, 153.15839);
        ((GeneralPath) shape).quadTo(76.1874, 153.0137, 76.32245, 152.92343);
        ((GeneralPath) shape).quadTo(76.4575, 152.83318, 76.701416, 152.83318);
        ((GeneralPath) shape).quadTo(76.858505, 152.83318, 77.048676, 152.87038);
        ((GeneralPath) shape).lineTo(76.99355, 153.1956);
        ((GeneralPath) shape).quadTo(76.8778, 153.17493, 76.77445, 153.17493);
        ((GeneralPath) shape).quadTo(76.60495, 153.17493, 76.53467, 153.24728);
        ((GeneralPath) shape).quadTo(76.46439, 153.31963, 76.46439, 153.51807);
        ((GeneralPath) shape).lineTo(76.46439, 153.72063);
        ((GeneralPath) shape).lineTo(76.89158, 153.72063);
        ((GeneralPath) shape).lineTo(76.89158, 154.01003);
        ((GeneralPath) shape).lineTo(76.46439, 154.01003);
        ((GeneralPath) shape).lineTo(76.46439, 155.91585);
        ((GeneralPath) shape).lineTo(76.0937, 155.91585);
        ((GeneralPath) shape).closePath();

        g.fill(shape);
        shape = new GeneralPath();

        g.fill(shape);

        g.setTransform(transformations.pop()); // _0_0_5
        transformations.push(g.getTransform());
        g.transform(new AffineTransform(1, 0, 0, 1, -9.488069f, 29.13238f));

        // _0_0_6

        // _0_0_6_0
        shape = new Rectangle2D.Double(60.66652297973633, 179.5215606689453, 36.08869934082031, 9.648689270019531);
        g.draw(shape);

        // _0_0_6_1
        //  sink  
        shape = new GeneralPath();

        g.fill(shape);
        shape = new GeneralPath();
        ((GeneralPath) shape).moveTo(67.463394, 184.92683);
        ((GeneralPath) shape).lineTo(67.83133, 184.86896);
        ((GeneralPath) shape).quadTo(67.86165, 185.09082, 68.003586, 185.20865);
        ((GeneralPath) shape).quadTo(68.14552, 185.32646, 68.399086, 185.32646);
        ((GeneralPath) shape).quadTo(68.655396, 185.32646, 68.77942, 185.22173);
        ((GeneralPath) shape).quadTo(68.90344, 185.117, 68.90344, 184.97644);
        ((GeneralPath) shape).quadTo(68.90344, 184.85104, 68.79458, 184.778);
        ((GeneralPath) shape).quadTo(68.71741, 184.7284, 68.41424, 184.6526);
        ((GeneralPath) shape).quadTo(68.00497, 184.54926, 67.84649, 184.47346);
        ((GeneralPath) shape).quadTo(67.68802, 184.39766, 67.60671, 184.26468);
        ((GeneralPath) shape).quadTo(67.525406, 184.1317, 67.525406, 183.97047);
        ((GeneralPath) shape).quadTo(67.525406, 183.82303, 67.59224, 183.69832);
        ((GeneralPath) shape).quadTo(67.65907, 183.5736, 67.77483, 183.49092);
        ((GeneralPath) shape).quadTo(67.86165, 183.42615, 68.011856, 183.38205);
        ((GeneralPath) shape).quadTo(68.16206, 183.33795, 68.33294, 183.33795);
        ((GeneralPath) shape).quadTo(68.59201, 183.33795, 68.787, 183.41237);
        ((GeneralPath) shape).quadTo(68.981995, 183.48679, 69.07501, 183.61356);
        ((GeneralPath) shape).quadTo(69.16803, 183.74034, 69.20386, 183.95393);
        ((GeneralPath) shape).lineTo(68.84006, 184.00354);
        ((GeneralPath) shape).quadTo(68.81525, 183.83405, 68.69605, 183.73897);
        ((GeneralPath) shape).quadTo(68.57685, 183.64388, 68.3605, 183.64388);
        ((GeneralPath) shape).quadTo(68.10418, 183.64388, 67.99463, 183.72862);
        ((GeneralPath) shape).quadTo(67.88508, 183.81339, 67.88508, 183.92638);
        ((GeneralPath) shape).quadTo(67.88508, 183.99942, 67.93055, 184.0573);
        ((GeneralPath) shape).quadTo(67.97603, 184.11655, 68.07249, 184.15651);
        ((GeneralPath) shape).quadTo(68.12899, 184.17719, 68.40184, 184.25159);
        ((GeneralPath) shape).quadTo(68.79596, 184.35632, 68.95236, 184.42384);
        ((GeneralPath) shape).quadTo(69.10877, 184.49138, 69.197655, 184.61954);
        ((GeneralPath) shape).quadTo(69.28654, 184.74768, 69.28654, 184.93785);
        ((GeneralPath) shape).quadTo(69.28654, 185.12389, 69.17767, 185.28787);
        ((GeneralPath) shape).quadTo(69.06881, 185.45186, 68.864174, 185.54213);
        ((GeneralPath) shape).quadTo(68.65953, 185.63239, 68.40184, 185.63239);
        ((GeneralPath) shape).quadTo(67.97327, 185.63239, 67.74934, 185.45462);
        ((GeneralPath) shape).quadTo(67.525406, 185.27686, 67.463394, 184.92683);
        ((GeneralPath) shape).closePath();
        ((GeneralPath) shape).moveTo(69.73027, 182.97966);
        ((GeneralPath) shape).lineTo(69.73027, 182.55247);
        ((GeneralPath) shape).lineTo(70.10234, 182.55247);
        ((GeneralPath) shape).lineTo(70.10234, 182.97966);
        ((GeneralPath) shape).lineTo(69.73027, 182.97966);
        ((GeneralPath) shape).closePath();
        ((GeneralPath) shape).moveTo(69.73027, 185.58278);
        ((GeneralPath) shape).lineTo(69.73027, 183.38756);
        ((GeneralPath) shape).lineTo(70.10234, 183.38756);
        ((GeneralPath) shape).lineTo(70.10234, 185.58278);
        ((GeneralPath) shape).lineTo(69.73027, 185.58278);
        ((GeneralPath) shape).closePath();
        ((GeneralPath) shape).moveTo(70.669395, 185.58278);
        ((GeneralPath) shape).lineTo(70.669395, 183.38756);
        ((GeneralPath) shape).lineTo(71.004265, 183.38756);
        ((GeneralPath) shape).lineTo(71.004265, 183.699);
        ((GeneralPath) shape).quadTo(71.245415, 183.33795, 71.70293, 183.33795);
        ((GeneralPath) shape).quadTo(71.90137, 183.33795, 72.06742, 183.40892);
        ((GeneralPath) shape).quadTo(72.233475, 183.47989, 72.316154, 183.59564);
        ((GeneralPath) shape).quadTo(72.398834, 183.71141, 72.43191, 183.87126);
        ((GeneralPath) shape).quadTo(72.452576, 183.97461, 72.452576, 184.2323);
        ((GeneralPath) shape).lineTo(72.452576, 185.58278);
        ((GeneralPath) shape).lineTo(72.080505, 185.58278);
        ((GeneralPath) shape).lineTo(72.080505, 184.24747);
        ((GeneralPath) shape).quadTo(72.080505, 184.02008, 72.0371, 183.90709);
        ((GeneralPath) shape).quadTo(71.99369, 183.79408, 71.883446, 183.72725);
        ((GeneralPath) shape).quadTo(71.77321, 183.66042, 71.624374, 183.66042);
        ((GeneralPath) shape).quadTo(71.38598, 183.66042, 71.21372, 183.81131);
        ((GeneralPath) shape).quadTo(71.041466, 183.9622, 71.041466, 184.38388);
        ((GeneralPath) shape).lineTo(71.041466, 185.58278);
        ((GeneralPath) shape).lineTo(70.669395, 185.58278);
        ((GeneralPath) shape).closePath();
        ((GeneralPath) shape).moveTo(73.025154, 185.58278);
        ((GeneralPath) shape).lineTo(73.025154, 182.55247);
        ((GeneralPath) shape).lineTo(73.397224, 182.55247);
        ((GeneralPath) shape).lineTo(73.397224, 184.28053);
        ((GeneralPath) shape).lineTo(74.277794, 183.38756);
        ((GeneralPath) shape).lineTo(74.7601, 183.38756);
        ((GeneralPath) shape).lineTo(73.920876, 184.20198);
        ((GeneralPath) shape).lineTo(74.84416, 185.58278);
        ((GeneralPath) shape).lineTo(74.38528, 185.58278);
        ((GeneralPath) shape).lineTo(73.66043, 184.45967);
        ((GeneralPath) shape).lineTo(73.397224, 184.71185);
        ((GeneralPath) shape).lineTo(73.397224, 185.58278);
        ((GeneralPath) shape).lineTo(73.025154, 185.58278);
        ((GeneralPath) shape).closePath();

        g.fill(shape);
        shape = new GeneralPath();

        g.fill(shape);

        g.setTransform(transformations.pop()); // _0_0_6

        // _0_0_7
        shape = new GeneralPath();
        ((GeneralPath) shape).moveTo(73.031395, 30.732733);
        ((GeneralPath) shape).lineTo(98.889725, 66.413216);

        g.setStroke(new BasicStroke(0.26458332f, 0, 0, 4));
        setPropertiesToGraphics("doc-source -> doc-lines", g);
        g.draw(shape);
        resetPropertiesFromGraphics(g);

        // _0_0_8
        shape = new GeneralPath();
        ((GeneralPath) shape).moveTo(50.914845, 30.665915);
        ((GeneralPath) shape).lineTo(35.079124, 52.98292);
        ((GeneralPath) shape).lineTo(35.814117, 102.16051);

        setPropertiesToGraphics("doc-source -> doc-count", g);
        g.draw(shape);
        resetPropertiesFromGraphics(g);
        transformations.push(g.getTransform());
        g.transform(new AffineTransform(1, 0, 0, 1, -8.882441f, 11.90625f));

        // _0_0_9

        // _0_0_9_0
        shape = new Rectangle2D.Double(24.388343811035156, 42.75986099243164, 39.756343841552734, 5.479025363922119);
        g.setPaint(WHITE);
        g.fill(shape);

        // _0_0_9_1
        //  (docId, docName) 
        g.setPaint(BLACK);
        shape = new GeneralPath();

        g.fill(shape);
        shape = new GeneralPath();
        ((GeneralPath) shape).moveTo(26.114143, 47.52686);
        ((GeneralPath) shape).quadTo(25.805464, 47.138252, 25.592556, 46.616665);
        ((GeneralPath) shape).quadTo(25.37965, 46.095078, 25.37965, 45.536972);
        ((GeneralPath) shape).quadTo(25.37965, 45.045013, 25.539503, 44.594395);
        ((GeneralPath) shape).quadTo(25.725538, 44.072117, 26.114143, 43.552597);
        ((GeneralPath) shape).lineTo(26.380106, 43.552597);
        ((GeneralPath) shape).quadTo(26.13068, 43.982548, 26.049376, 44.167202);
        ((GeneralPath) shape).quadTo(25.923975, 44.452457, 25.850939, 44.762516);
        ((GeneralPath) shape).quadTo(25.762745, 45.148365, 25.762745, 45.53973);
        ((GeneralPath) shape).quadTo(25.762745, 46.533295, 26.380106, 47.52686);
        ((GeneralPath) shape).lineTo(26.114143, 47.52686);
        ((GeneralPath) shape).closePath();
        ((GeneralPath) shape).moveTo(28.236322, 46.63527);
        ((GeneralPath) shape).lineTo(28.236322, 46.358284);
        ((GeneralPath) shape).quadTo(28.028238, 46.68488, 27.623096, 46.68488);
        ((GeneralPath) shape).quadTo(27.35989, 46.68488, 27.140093, 46.540184);
        ((GeneralPath) shape).quadTo(26.920296, 46.39549, 26.799028, 46.13573);
        ((GeneralPath) shape).quadTo(26.677761, 45.87597, 26.677761, 45.53973);
        ((GeneralPath) shape).quadTo(26.677761, 45.210377, 26.787315, 44.94304);
        ((GeneralPath) shape).quadTo(26.89687, 44.675697, 27.115978, 44.533073);
        ((GeneralPath) shape).quadTo(27.335085, 44.390446, 27.60656, 44.390446);
        ((GeneralPath) shape).quadTo(27.804996, 44.390446, 27.960026, 44.473816);
        ((GeneralPath) shape).quadTo(28.115055, 44.557186, 28.211517, 44.692234);
        ((GeneralPath) shape).lineTo(28.211517, 43.604965);
        ((GeneralPath) shape).lineTo(28.58221, 43.604965);
        ((GeneralPath) shape).lineTo(28.58221, 46.63527);
        ((GeneralPath) shape).lineTo(28.236322, 46.63527);
        ((GeneralPath) shape).closePath();
        ((GeneralPath) shape).moveTo(27.060856, 45.53973);
        ((GeneralPath) shape).quadTo(27.060856, 45.961407, 27.238623, 46.17018);
        ((GeneralPath) shape).quadTo(27.41639, 46.378956, 27.657547, 46.378956);
        ((GeneralPath) shape).quadTo(27.901459, 46.378956, 28.072336, 46.17914);
        ((GeneralPath) shape).quadTo(28.243214, 45.979324, 28.243214, 45.570045);
        ((GeneralPath) shape).quadTo(28.243214, 45.119427, 28.06958, 44.90859);
        ((GeneralPath) shape).quadTo(27.895947, 44.697746, 27.64101, 44.697746);
        ((GeneralPath) shape).quadTo(27.392963, 44.697746, 27.22691, 44.90032);
        ((GeneralPath) shape).quadTo(27.060856, 45.10289, 27.060856, 45.53973);
        ((GeneralPath) shape).closePath();
        ((GeneralPath) shape).moveTo(29.028006, 45.536972);
        ((GeneralPath) shape).quadTo(29.028006, 44.92788, 29.367002, 44.634357);
        ((GeneralPath) shape).quadTo(29.650879, 44.390446, 30.0574, 44.390446);
        ((GeneralPath) shape).quadTo(30.510775, 44.390446, 30.798096, 44.68672);
        ((GeneralPath) shape).quadTo(31.085417, 44.983, 31.085417, 45.506657);
